tree
version=v4
num_class=1
num_tree_per_iteration=1
label_index=0
max_feature_idx=5
objective=binary sigmoid:1
feature_names=volatility_ratio momentum_slope volume_surge close_sma20_dist close_sma200_dist rsi_14
feature_infos=[0.15461060384466807:2.7589623996663848] [-1592.5:6560.921875] [0:20] [0.015568228201886072:6.2117741471707557] [-16.180709928762305:14.845973643423527] [37.57606520121589:89.227370550240607]
tree_sizes=1044 1183 1075 1175 1075 1183 1286 1282 1188 1287 1186 1285 1180 1289 1178 1285 1282 1176 1289 1285 1183 1287 1077 1187 1080 1390 1285 1079 1184 1183 1076 1392 1279 1180 1178 1183 1078 1183 1286 1283 1183 1189 1182 1188 1185 1188 1182 1182 1294 1174 1187 1180 1082 1187 1183 1182 1284 1185 1185 1289 1185 1080 1294 1187 1292 1191 1285 1187 1184 1191 1183 1081 1297 1183 1197 1285 1293 1184 1186 1187 1281 1084 1284 1090 1186 1182 1188 1288 1086 1182 1079 1185 1284 1079 1496 1192 1288 1088 1181 1290 1194 1190 1192 1294 1185 1298 1087 1289 1190 1089 1300 1294 1191 1198 1287 1188 1187 1398 1399 1192 1187 1084 1296 1179 1293 1192 1401 1294 1299 1191 1288 1191 1301 1394 1188 1189 1299 1297 1300 1186 1194 1287 1191 1287 1191 1188 1294 1092 1197 1296 1407 1190 1291 1297 1295 1297 1186 1200 1291 1187 1403 1400 1298 1187 1189 1199 1193 1091 1194 1400 1302 1088 1395 1190 1095 1398 1187 1294 1190 1191 1194 1191 1399 1392 1396 1298 1296 1303 1291 1294 1191 1296 1194 1401 1297 1301 1284 1194 1292 1289 1194 1192 1198 1302 1299 1407 1296 1197 1297 1297 1082 1297 1082 1195 1194 1083 1089 1084 1189 1303 1194 1295 1299 1192 1191 1193 1191 1189 1297 1297 1398 1190 1193 1188 1087 1197 1086 1192 1296 1293 1398 1093 1194 1192 1299 1195 1294 1193 1193 1300 1299 1197 1196 1190 1299 1296 1191 1301 1295 1295 1194 1399 1406 1194 1199 1192 1299 1195 1196 1507 1289 1191 1187 1194 1305 1191 1288 1293 1195 1294 1195 1292 1298 1195 1299 1197 1190 1408 1405 1293 1090 1195 1197 1193 1294 1294 1297 1094 1085 1093 1199 1299 1301 1294 1294 1301 1088 1198 1298 1200 1310 1197 1195 1195 1302 1305 1090 1198 1194 1304 1305 1200 1406 1301 1089 1190 1196 1202 1197 1088 1095 1401 1090 1195 1200 1085 1195 1300 1197 1198 1300 1198 1513 1198 1304 1303 1196 1411 1296 1304 1193 1190 1292 1308 1309 1401 1306 1198 1308 1190 1204 1300 1197 1195 1196 1300 1195 1295 1304 1300 1198 1302 1202 1521 1201 1308 1195 1200 1094 1202 1408 1298 1091 1196 1198 1306 1086 1200 1196 1299 1302 1302 1416 1197 1203 1306 1303 1523 1202 1199 1094 1306 1202 1416 1308 1626 1205 1197 1309 1413 1208 1195 1416 1312 1205 1302 1416 1315 1419 1311 1415 1209 1417 1200 1095 1413 1200 1314 1094 1205 1307 1424 1194 1308 1318 1417 1307 1305 1423 1424 1207 1210 1214 1208 1307 1424 1419 1103 1320 1313 1315 1205 1207 1202 1421 1201 1093 1314 1306 1316 1313 1419 1313 1213 1304 1313 1319 1309 1310 1208 1322 1096 1212 1314 1203 1424 1426 1317 1212 1319 1094 1317 1212 1101 1525 1418 1312 1420 1315 1314 1315 1314 1210 1536 1423 1419 1324 1209 1211 1319

Tree=0
num_leaves=9
num_cat=0
split_feature=0 3 4 5 5 0 2 4
split_gain=20.1803 5.75555 2.81768 3.39712 3.67536 4.82408 2.48755 1.28606
threshold=0.92972660904221593 0.6077536386960215 4.9508144174546551 74.105988459886291 68.929692874591112 0.59454498110180876 2.9615239554503483 0.40529504592279153
decision_type=2 2 2 2 2 2 2 2
left_child=1 7 3 4 5 -3 -6 -1
right_child=-2 2 -4 -5 6 -7 -8 -9
leaf_value=-1.1298961683121336 -0.97906239660247407 -1.0456900965118163 -1.0338388715917715 -1.1053360640370411 -1.0200359169310744 -1.1086549970471888 -1.0703565215846365 -1.0906000014719854
leaf_weight=4.5805993080139142 6.2983240485191336 5.3440325260162407 5.7257491350173941 6.1074657440185538 5.9166074395179731 7.0617572665214539 4.1988826990127563 3.8171660900115967
leaf_count=24 33 28 30 32 31 37 22 20
internal_value=-1.06262 -1.07493 -1.06586 -1.07226 -1.06329 -1.08153 -1.04092 -1.11203
internal_weight=49.0506 42.7523 34.3545 28.6287 22.5213 12.4058 10.1155 8.39777
internal_count=257 224 180 150 118 65 53 44
is_linear=0
shrinkage=1


Tree=1
num_leaves=10
num_cat=0
split_feature=0 3 4 0 4 1 3 4 0
split_gain=17.5909 5.36878 2.52475 3.19973 3.42092 4.17429 3.17822 1.25046 1.07017
threshold=0.92972660904221593 0.6077536386960215 4.9508144174546551 0.50426448370265298 1.1763511268053368 928.42578125000011 0.79211786688017038 0.40529504592279153 0.64292154957441594
decision_type=2 2 2 2 2 2 2 2 2
left_child=1 7 3 6 5 -5 -3 -1 -6
right_child=-2 2 -4 4 8 -7 -8 -9 -10
leaf_value=-0.06615334022157289 0.076239307257009059 -0.022092405859182474 0.026955148926410145 -0.030467921291383301 -0.029485609216919773 0.037660581597781156 0.032025669888473059 -0.026960186871649219 -0.066691114092737341
leaf_weight=4.4293502569198591 6.5507092326879492 4.4094110280275363 5.8055394887924185 5.4804257303476351 3.9864634424448004 3.8123946487903595 7.0513646006584167 3.7650078535079956 3.7516784816980362
leaf_count=24 33 23 30 29 21 20 37 20 20
internal_value=-2.74832e-05 -0.0117851 -0.00309785 -0.00922151 -0.0229668 -0.00251809 0.0112043 -0.0481455 -0.0475239
internal_weight=49.0423 42.4916 34.2973 28.4917 17.031 9.29282 11.4608 8.19436 7.73814
internal_count=257 224 180 150 90 49 60 44 41
is_linear=0
shrinkage=0.05


Tree=2
num_leaves=9
num_cat=0
split_feature=0 3 4 5 5 0 2 4
split_gain=15.4205 5.00958 2.26455 3.21029 3.18476 4.28945 2.18059 1.21892
threshold=0.92972660904221593 0.6077536386960215 4.9508144174546551 74.105988459886291 68.929692874591112 0.59454498110180876 2.9615239554503483 0.40529504592279153
decision_type=2 2 2 2 2 2 2 2
left_child=1 7 3 4 5 -3 -6 -1
right_child=-2 2 -4 -5 6 -7 -8 -9
leaf_value=-0.065119320947780335 0.069982798768230117 0.015893832466110994 0.025276467051261339 -0.041398915966980969 0.039681876614380385 -0.04385808866343191 -0.0073069699649038495 -0.025970371195599536
leaf_weight=4.2785224914550772 6.7734268605709067 5.3895842432975822 5.8795697987079611 5.9695505052804938 6.0346905887126905 6.7845409512519836 4.1786760687828064 3.71439129114151
leaf_count=24 33 28 30 32 31 37 22 20
internal_value=-5.17287e-05 -0.011285 -0.00296407 -0.00881948 -0.000132282 -0.0174054 0.020457 -0.0469264
internal_weight=49.003 42.2295 34.2366 28.357 22.3875 12.1741 10.2134 7.99291
internal_count=257 224 180 150 118 65 53 44
is_linear=0
shrinkage=0.05


Tree=3
num_leaves=10
num_cat=0
split_feature=0 3 2 2 5 1 2 3 1
split_gain=13.5805 4.67557 2.18188 6.59527 6.46632 5.85858 4.1201 1.89484 0.217387
threshold=0.92972660904221593 0.6077536386960215 1.0000000180025095e-35 0.70294185685608479 67.926865746260617 1986.7265625000002 4.359875965198345 1.0898077635792471 193.73828125000003
decision_type=2 2 2 2 2 2 2 2 2
left_child=1 8 7 -4 -5 6 -6 -3 -1
right_child=-2 2 3 4 5 -7 -8 -9 -10
leaf_value=-0.053351116105017832 0.064560019823956385 -0.037599591492538637 0.062896855342604224 -0.056066668864205818 0.00018098685181433877 -0.040258104569601293 0.068473187173853242 0.001360596014258102 -0.036576105059517319
leaf_weight=4.2635900974273673 6.9698861539363852 6.6913126111030561 4.2160153090953854 4.8175606578588512 4.4221461415290815 3.7562720179557791 4.412037193775177 5.8486418575048447 3.5305219888687134
leaf_count=24 33 35 22 26 23 20 23 31 20
internal_value=-7.15601e-05 -0.0108079 -0.00283565 0.0067867 -0.00680252 0.0120477 0.034288 -0.0194285 -0.0457525
internal_weight=48.928 41.9581 34.164 21.624 17.408 12.5905 8.83418 12.54 7.79411
internal_count=257 224 180 114 92 66 46 66 44
is_linear=0
shrinkage=0.05


Tree=4
num_leaves=9
num_cat=0
split_feature=0 3 4 5 5 0 4 4
split_gain=12.0081 4.35943 2.0039 3.0031 2.67872 3.92911 1.82587 1.22866
threshold=0.92972660904221593 0.6077536386960215 4.9508144174546551 74.105988459886291 68.929692874591112 0.59454498110180876 0.53076259900411582 0.40529504592279153
decision_type=2 2 2 2 2 2 2 2
left_child=1 7 3 4 5 -3 -6 -1
right_child=-2 2 -4 -5 6 -7 -8 -9
leaf_value=-0.063544303617515618 0.059805617127542447 0.015493749281337683 0.023641443044763233 -0.040211158437239991 0.045435659089122948 -0.042094913203345644 0.0022032185432648769 -0.023270800658578727
leaf_weight=4.0249990224838248 7.1430655717849723 5.405375495553022 5.9499575197696677 5.8411403447389594 3.9458486288785917 6.551887109875679 6.4090956449508667 3.5766475796699524
leaf_count=24 33 28 30 32 20 37 33 20
internal_value=-9.54782e-05 -0.0103551 -0.00272297 -0.00829485 6.05626e-05 -0.0160615 0.0186773 -0.0445952
internal_weight=48.848 41.705 34.1033 28.1533 22.3122 11.9573 10.3549 7.60165
internal_count=257 224 180 150 118 65 53 44
is_linear=0
shrinkage=0.05


Tree=5
num_leaves=10
num_cat=0
split_feature=3 3 5 2 2 3 2 4 4
split_gain=6.5796 4.22924 3.01376 2.78962 5.74568 5.7657 2.07154 1.43298 1.20195
threshold=0.6077536386960215 2.6801716931713826 74.787482892917367 1.0084414784564475 1.0000000180025095e-35 1.0898077635792471 1.2628687981212698 1.5759838127602412 0.40529504592279153
decision_type=2 2 2 2 2 2 2 2 2
left_child=8 2 3 4 5 -2 -4 -5 -1
right_child=1 -3 6 7 -6 -7 -8 -9 -10
leaf_value=-0.06271043476476762 -0.028895263808878309 0.054207316670508002 -0.052844517519482839 -0.026275453401993856 0.063956487274075255 0.042973482356174049 -4.2653195952467631e-05 0.0075698833502034829 -0.022392926724759968
leaf_weight=3.8783106207847586 6.4664163589477592 4.3663223832845679 3.6935782879590979 5.9725992232561094 5.6089497953653327 4.9094540476799011 3.7367844730615616 6.5649469941854477 3.5321755409240723
leaf_count=24 34 21 20 31 28 25 20 34 20
internal_value=-0.000109688 0.00767107 0.00217236 0.00933595 0.0225411 0.00212094 -0.0262901 -0.00855326 -0.0434933
internal_weight=48.7295 41.3191 36.9527 29.5224 16.9848 11.3759 7.43036 12.5375 7.41049
internal_count=257 213 192 152 87 59 40 65 44
is_linear=0
shrinkage=0.05


Tree=6
num_leaves=11
num_cat=0
split_feature=0 3 0 5 2 2 0 5 1 5
split_gain=10.0014 3.49386 2.03767 2.4255 2.57611 6.83577 2.59675 1.92055 1.10646 0.235336
threshold=0.86697046062891225 0.6077536386960215 0.78703397118301999 74.105988459886291 1.0084414784564475 1.0000000180025095e-35 0.50426448370265298 67.729431627253618 1137.6113281250002 63.948815168999808
decision_type=2 2 2 2 2 2 2 2 2 2
left_child=1 9 3 4 5 7 -6 -3 -2 -1
right_child=8 2 -4 -5 6 -7 -8 -9 -10 -11
leaf_value=-0.032497647248321035 0.065582692790095876 -0.027902941869557274 -0.039060284907547101 -0.024633676136689181 0.018120788444855075 0.076725566350377916 -0.035831069355029846 0.020024570758115316 0.030623848660644038 -0.050629497994868759
leaf_weight=3.2688162028789511 4.3064589500427228 3.8887909948825889 3.6664933711290351 7.1806694567203513 4.0684387385845167 4.0809684395790091 4.9362873136997223 4.5194670408964157 4.7708731144666672 3.9544647634029388
leaf_count=20 20 21 20 39 21 20 27 23 22 24
internal_value=-0.000124443 -0.0109842 -0.00396224 0.000525582 0.00893075 0.0236289 -0.011455 -0.00214174 0.047209 -0.0424241
internal_weight=48.6417 39.5644 32.3411 28.6746 21.494 12.4892 9.00473 8.40826 9.07733 7.22328
internal_count=257 215 171 151 112 64 48 44 42 44
is_linear=0
shrinkage=0.05


Tree=7
num_leaves=11
num_cat=0
split_feature=0 0 4 0 0 4 4 4 4 5
split_gain=9.01666 3.56922 2.43424 2.41708 2.04405 5.50814 4.24664 2.34726 1.5891 1.18789
threshold=0.92972660904221593 0.32235499980818633 -0.73822737438416064 0.58708778264650363 0.48025259743505289 4.9508144174546551 1.1763511268053368 2.4171838358629572 3.1002544806155625 68.387693461498785
decision_type=2 2 2 2 2 2 2 2 2 2
left_child=1 9 3 -3 7 6 -6 -4 -8 -1
right_child=-2 2 4 -5 5 -7 8 -9 -10 -11
leaf_value=-0.063212058602494431 0.050347051045436769 -0.054249251860921846 0.051320685613780073 0.0019914344843856781 0.016580567075236276 0.039926940735700744 -0.065073762246128 -0.0027557249951351767 -0.022191141491336969 -0.021631199689466404
leaf_weight=3.4027524739503852 7.4804569929838172 4.0243332833051673 4.2002703696489352 3.6369379013776779 4.7486874312162426 5.0266858786344519 4.0559822618961316 3.8425110429525375 4.6224821954965591 3.4684039652347565
leaf_count=21 33 22 22 20 25 25 23 20 26 20
internal_value=-0.000137794 -0.00934224 -0.002728 -0.0275508 0.00444931 -0.00471881 -0.0214327 0.0254852 -0.0422328 -0.042223
internal_weight=48.5095 41.029 34.1579 7.66127 26.4966 18.4538 13.4272 8.04278 8.67846 6.87116
internal_count=257 224 183 42 141 99 74 42 49 41
is_linear=0
shrinkage=0.05


Tree=8
num_leaves=10
num_cat=0
split_feature=0 0 1 1 5 5 2 5 0
split_gain=8.04578 3.32574 1.9599 4.44534 1.60556 4.03639 1.51499 1.16037 0.0618107
threshold=0.92972660904221593 0.32235499980818633 2138.1484375000005 1581.5703125000002 73.24303884277154 67.729431627253618 0.61909754233972258 68.387693461498785 0.55402139887422008
decision_type=2 2 2 2 2 2 2 2 2
left_child=1 7 3 4 5 6 8 -1 -3
right_child=-2 2 -4 -5 -6 -7 -8 -9 -10
leaf_value=-0.062412723068278754 0.047109824923478136 0.0007273208779355211 -0.030070519809824919 0.046570749479673282 -0.030136765514345812 0.030539948559391739 -0.041730392600440327 -0.020800928611521982 -0.0085308368021678373
leaf_weight=3.2771969139575949 7.5917588025331488 3.6961348205804914 5.4593632072210303 4.7903283685445777 5.4191200435161582 7.0514044910669318 4.14068304002285 3.4275647401809692 3.5195094645023346
leaf_count=21 33 20 30 25 29 36 23 20 20
internal_value=-0.000152135 -0.00895032 -0.00261677 0.00262065 -0.00621541 0.000826887 -0.0176226 -0.0411402 -0.00378845
internal_weight=48.3731 40.7813 34.0765 28.6172 23.8269 18.4077 11.3563 6.70476 7.21564
internal_count=257 224 183 153 128 99 63 41 40
is_linear=0
shrinkage=0.05


Tree=9
num_leaves=11
num_cat=0
split_feature=0 3 0 4 3 2 2 4 4 1
split_gain=7.26075 2.98613 1.90648 1.43806 2.87932 1.91847 1.76814 1.59219 1.19684 0.908726
threshold=0.86697046062891225 0.6077536386960215 0.78703397118301999 4.9508144174546551 1.2063817179916454 1.0000000180025095e-35 1.7206176026144053 0.78747460859691665 0.40529504592279153 1137.6113281250002
decision_type=2 2 2 2 2 2 2 2 2 2
left_child=1 8 3 4 5 -3 -7 -6 -1 -2
right_child=9 2 -4 -5 7 6 -8 -9 -10 -11
leaf_value=-0.060536861440702444 0.055405192582559437 -0.0096895827551237088 -0.037773320729077187 0.028540366521109962 -0.04532103290704606 0.04988282405913836 0.0022332335389415913 -0.0060273308804028028 -0.018519457340870776 0.024336222026682074
leaf_weight=3.444989562034606 4.5083209127187711 6.1286084055900627 3.5719342082738867 4.05819447338581 4.6329464316368085 4.1761067062616348 3.6471422165632248 5.8123909831047058 3.3359509855508804 4.9241211265325546
leaf_count=24 20 33 20 20 25 21 20 32 20 22
internal_value=-0.000160389 -0.0097236 -0.00334175 0.000980359 -0.00360393 0.0112585 0.0276689 -0.0234557 -0.039866 0.0391859
internal_weight=48.2407 38.8083 32.0273 28.4554 24.3972 13.9519 7.82325 10.4453 6.78094 9.43244
internal_count=257 215 171 151 131 74 41 57 44 42
is_linear=0
shrinkage=0.05


Tree=10
num_leaves=10
num_cat=0
split_feature=0 1 1 4 0 0 3 4 4
split_gain=6.5323 3.13478 4.03905 3.4816 3.49165 2.58854 4.90859 2.42385 1.66916
threshold=0.92972660904221593 193.73828125000003 -243.64062499999997 4.9508144174546551 0.64292154957441594 0.41997370010475682 1.1887302650451153 0.14566948004853422 0.9564709482398287
decision_type=2 2 2 2 2 2 2 2 2
left_child=1 2 -1 4 5 7 -7 -3 -6
right_child=-2 3 -4 -5 8 6 -8 -9 -10
leaf_value=-0.00012434799723148643 0.041835334190848547 -0.050036224294568769 -0.065268107318821142 0.037181811743809266 -0.015475200798722874 0.057463497289258869 -0.011899050545961952 0.0052584266483389356 -0.063653737272706845
leaf_weight=4.6684945523738861 7.7626924812793723 3.3575468957424253 4.8528088927268964 5.1122329235076895 3.9505248069763175 4.7599683851003629 5.4952461421489716 4.8371922522783279 3.2990466058254242
leaf_count=28 33 20 28 25 22 25 30 26 20
internal_value=-0.000167079 -0.00825106 -0.0333268 -0.000502291 -0.00799853 0.00355412 0.0202956 -0.0173969 -0.0373997
internal_weight=48.0958 40.3331 9.5213 30.8118 25.6995 18.45 10.2552 8.19474 7.24957
internal_count=257 224 56 168 143 101 55 46 42
is_linear=0
shrinkage=0.05


Tree=11
num_leaves=11
num_cat=0
split_feature=0 3 0 5 2 2 4 5 4 2
split_gain=5.92662 2.73342 1.7044 2.18023 2.25944 5.27298 2.57377 1.66319 1.17789 0.275428
threshold=0.86697046062891225 0.6077536386960215 0.78703397118301999 74.105988459886291 1.0084414784564475 1.0000000180025095e-35 2.1176806630298981 67.729431627253618 0.40529504592279153 1.7206176026144053
decision_type=2 2 2 2 2 2 2 2 2 2
left_child=1 8 3 4 5 7 -6 -3 -1 -2
right_child=9 2 -4 -5 6 -7 -8 -9 -10 -11
leaf_value=-0.059722140277899974 0.027004956962649332 -0.025279303971271545 -0.036079399854009729 -0.023121287296426169 -0.035194765958779156 0.0678948648117388 0.018936429610281431 0.019799777695131249 -0.017251648958042792 0.043975516781644686
leaf_weight=3.258307918906211 5.1081998348236066 3.7363770306110471 3.4558708965778342 6.992021605372428 4.7758898884057981 4.2599119842052451 4.0649375468492508 4.5230435132980347 3.2719860672950745 4.4945111721754074
leaf_count=24 22 21 20 39 26 20 22 23 20 20
internal_value=-0.000178927 -0.00897725 -0.00292796 0.00111289 0.00904569 0.0227111 -0.0103057 -0.00059299 -0.0384424 0.034948
internal_weight=47.9411 38.3383 31.8081 28.3522 21.3602 12.5193 8.84083 8.25942 6.53029 9.60271
internal_count=257 215 171 151 112 64 48 44 44 42
is_linear=0
shrinkage=0.05


Tree=12
num_leaves=10
num_cat=0
split_feature=0 1 5 1 1 2 5 2 4
split_gain=5.33377 2.8476 3.90689 3.89233 2.54057 6.20545 4.47375 3.7145 2.68487
threshold=0.92972660904221593 193.73828125000003 61.182753964707196 -243.64062499999997 2138.1484375000005 4.359875965198345 73.771381125932706 1.0891480727979641 0.14566948004853422
decision_type=2 2 2 2 2 2 2 2 2
left_child=1 3 -3 -1 5 6 7 8 -4
right_child=-2 2 4 -5 -6 -7 -8 -9 -10
leaf_value=0.00057174881855932228 0.037358005455620645 -0.043079111252180599 0.0010064643993740125 -0.064269003266113039 -0.025436633286910176 0.058020901689158501 -0.050768586278646111 -0.027541568570063187 0.059727118301682605
leaf_weight=4.618813082575798 7.8961597830057135 4.5397389680147198 3.6192647516727501 4.6391604095697385 4.8572708517312995 5.938679412007331 3.6195491105318061 3.8215959891676903 4.2120823115110397
leaf_count=28 33 27 20 28 27 31 21 21 21
internal_value=-0.000185828 -0.00762201 -0.000272703 -0.0319199 0.0071819 0.0146514 -0.00221273 0.0128693 0.0325893
internal_weight=47.7623 39.8662 30.6082 9.25797 26.0684 21.2112 15.2725 11.6529 7.83135
internal_count=257 224 168 56 141 114 83 62 41
is_linear=0
shrinkage=0.05


Tree=13
num_leaves=11
num_cat=0
split_feature=0 0 5 5 2 2 2 1 1 1
split_gain=4.8481 2.51716 1.27841 2.63208 2.73555 7.52048 3.04645 1.26376 1.14849 0.827498
threshold=0.86697046062891225 0.32235499980818633 74.787482892917367 71.738538495813501 0.70294185685608479 1.0000000180025095e-35 2.7007607536951248 203.76171875000003 353.82031250000006 1137.6113281250002
decision_type=2 2 2 2 2 2 2 2 2 2
left_child=1 8 3 4 5 7 -6 -3 -1 -2
right_child=9 2 -4 -5 6 -7 -8 -9 -10 -11
leaf_value=-0.060370472653143319 0.046469980083759202 0.0041278270301782199 -0.021790285210430249 0.033790842077054885 -0.064705567325426705 0.065076681489562069 0.00088016654548148511 -0.034826281081177482 -0.016991942608560014 0.017296520758587491
leaf_weight=2.9147978127002707 4.6621979326009733 3.6234781891107648 6.8336352556943885 5.3253664076328269 3.4099949747323981 3.9689797163009635 3.6828116327524185 4.8945313841104507 3.2021690681576729 5.0783766657114029
leaf_count=21 20 21 39 27 20 19 20 28 20 22
internal_value=-0.000198837 -0.00829344 -0.00263323 0.0026232 -0.00585386 0.00823151 -0.0306514 -0.0182556 -0.0376623 0.03126
internal_weight=47.5963 37.8558 31.7388 24.9052 19.5798 12.487 7.09281 8.51801 6.11697 9.74057
internal_count=257 215 174 135 108 68 40 49 41 42
is_linear=0
shrinkage=0.05


Tree=14
num_leaves=10
num_cat=0
split_feature=0 1 1 5 1 2 5 2 0
split_gain=4.37367 2.60421 3.73081 3.5747 2.33228 5.32618 4.08202 3.18035 1.15037
threshold=0.92972660904221593 193.73828125000003 -243.64062499999997 61.182753964707196 2138.1484375000005 4.359875965198345 73.771381125932706 1.0891480727979641 0.5305443444068968
decision_type=2 2 2 2 2 2 2 2 2
left_child=1 2 -1 -3 5 6 7 8 -5
right_child=-2 3 -4 4 -6 -7 -8 -9 -10
leaf_value=0.00094941830071395964 0.033509085392793972 -0.041754876016180685 -0.06339803083616849 0.010231058836398139 -0.024533110855365758 0.053542270307137187 -0.04929184883143059 -0.025757114724694524 0.048395590703561475
leaf_weight=4.5869132429361343 7.9965293109416953 4.3949718996882465 4.4262740314006788 3.7519795373082214 4.7848113924264899 6.1014458686113349 3.4827090501785269 3.7149854302406311 4.1678851544857025
leaf_count=28 33 27 28 20 27 31 21 21 21
internal_value=-0.000206309 -0.00704703 -0.0306509 -4.85229e-05 0.00700038 0.0141111 -0.00180337 0.0124116 0.0303154
internal_weight=47.4085 39.412 9.01319 30.3988 26.0038 21.219 15.1176 11.6349 7.91986
internal_count=257 224 56 168 141 114 83 62 41
is_linear=0
shrinkage=0.05


Tree=15
num_leaves=11
num_cat=0
split_feature=3 3 1 4 1 2 3 3 1 4
split_gain=3.52959 2.74171 1.94165 1.50609 2.18828 6.18066 3.41134 2.33814 1.94267 1.18106
threshold=0.6077536386960215 2.8201388426480061 -143.40624999999997 -0.73822737438416064 1891.1953125000002 3.5154557025106929 1.2735482252852321 0.95900085094124277 851.01171875000011 0.40529504592279153
decision_type=2 2 2 2 2 2 2 2 2 2
left_child=9 2 -2 8 5 6 7 -5 -4 -1
right_child=1 -3 3 4 -6 -7 -8 -9 -10 -11
leaf_value=-0.058472951087243707 0.034645808253122655 0.044244549635069803 -0.046162294715850274 -0.0082916801617889686 -0.022517242841593732 0.066641574150896513 -0.034093454200165338 0.041964311539678674 0.0028630475156380978 -0.014361773168265316
leaf_weight=2.9513159096240988 3.8009128570556632 4.0228315740823737 4.0758593827485985 4.9408762454986661 6.3253884464502326 4.0004824548959723 5.6214007139205924 4.3537476509809494 4.0074490755796432 3.1233493685722351
leaf_count=24 20 18 22 26 34 20 30 22 21 20
internal_value=-0.000215642 0.00503647 0.00078805 -0.0030736 0.0029415 0.0114545 -0.00334668 0.015249 -0.0218571 -0.0357928
internal_weight=47.2236 41.1489 37.1261 33.3252 25.2419 18.9165 14.916 9.29462 8.08331 6.07467
internal_count=257 213 195 175 132 98 78 48 43 44
is_linear=0
shrinkage=0.05


Tree=16
num_leaves=11
num_cat=0
split_feature=0 0 4 0 5 1 4 5 1 1
split_gain=3.877 2.20492 1.63438 3.22401 1.68945 1.55962 1.43676 1.24135 0.783719 0.564047
threshold=0.86697046062891225 0.32235499980818633 4.9508144174546551 0.50426448370265298 72.940822547949125 1202.9609375000002 0.88816087224140394 68.542416565664894 1137.6113281250002 481.88671875000006
decision_type=2 2 2 2 2 2 2 2 2 2
left_child=1 7 3 6 5 9 -3 -1 -2 -5
right_child=8 2 -4 4 -6 -7 -8 -9 -10 -11
leaf_value=-0.059780416089083743 0.042383731790235177 -0.0080830161996465165 0.022988590630066988 -0.012749831736408002 -0.051283784262267956 0.011023504679000123 0.029765891696612354 -0.013546288947590883 0.014153148063298551 -0.039830262866000783
leaf_weight=2.8090030997991553 4.718077674508093 4.2600295543670708 5.2868660986423484 3.8535983711481077 3.6971118599176398 4.4142356067895889 6.0943867713212967 3.0048271119594574 5.1331996023654938 3.8378117233514786
leaf_count=22 20 24 26 23 22 25 32 19 22 22
internal_value=-0.000221479 -0.00759717 -0.00236696 -0.0074918 -0.021701 -0.0126663 0.014194 -0.0358847 0.0276736 -0.0262623
internal_weight=47.1091 37.2579 31.444 26.1572 15.8028 12.1056 10.3544 5.81383 9.85128 7.69141
internal_count=257 215 174 148 92 70 56 41 42 45
is_linear=0
shrinkage=0.05


Tree=17
num_leaves=10
num_cat=0
split_feature=0 1 1 5 1 2 5 2 0
split_gain=3.50286 2.35049 3.5347 3.12498 2.09191 4.12712 3.77646 2.91316 1.05365
threshold=0.92972660904221593 193.73828125000003 -243.64062499999997 61.182753964707196 2138.1484375000005 4.359875965198345 73.771381125932706 1.0891480727979641 0.5305443444068968
decision_type=2 2 2 2 2 2 2 2 2
left_child=1 2 -1 -3 5 6 7 8 -5
right_child=-2 3 -4 4 -6 -7 -8 -9 -10
leaf_value=0.0012317526608976385 0.029736242138757779 -0.039856982439362462 -0.062433174038879324 0.010167897433806449 -0.023519790411135427 0.047161074835275089 -0.047870215347260381 -0.024528558079752735 0.046691404870403325
leaf_weight=4.5483526289463043 8.0780959427356702 4.1969030946493175 4.1872956827282888 3.7309621050953918 4.7044157087802878 6.3284579813480368 3.3394006639719001 3.6414117887616158 4.1947927176952362
leaf_count=28 33 27 28 20 27 31 21 21 21
internal_value=-0.000222726 -0.00644858 -0.029285 0.00017104 0.00664742 0.0133307 -0.00103173 0.0124904 0.0294984
internal_weight=46.9501 38.872 8.73565 30.1363 25.9394 21.235 14.9066 11.5672 7.92575
internal_count=257 224 56 168 141 114 83 62 41
is_linear=0
shrinkage=0.05


Tree=18
num_leaves=11
num_cat=0
split_feature=0 3 4 1 0 4 4 0 1 1
split_gain=3.16309 2.06429 1.65252 2.78711 2.66499 2.36633 2.72092 1.69534 2.26618 0.693467
threshold=0.86697046062891225 0.41320751390575561 -0.73822737438416064 2138.1484375000005 0.58708778264650363 4.9508144174546551 0.40529504592279153 0.59454498110180876 913.82421875000011 1137.6113281250002
decision_type=2 2 2 2 2 2 2 2 2 2
left_child=1 -1 4 5 -3 6 -4 8 -8 -2
right_child=9 2 3 -5 -6 -7 7 -9 -10 -11
leaf_value=-0.044597690981649757 0.038559104873203492 -0.051304575861346582 0.036110624251196953 -0.037738090162951571 0.0095206626217885747 0.042467091462257647 0.01967890568553703 -0.037852811554540573 -0.029223458946325914 0.012115249501351961
leaf_weight=3.3190843388438216 4.7682914286851865 4.0568559467792467 4.2899500280618801 3.680094636976718 3.2382347360253334 4.3191085159778586 6.2990388795733434 3.811085268855094 3.7971629947423935 5.1644089967012405
leaf_count=26 20 26 23 22 19 21 35 23 20 22
internal_value=-0.000229227 -0.00698559 -0.00325815 0.00260282 -0.0243047 0.00919618 0.00129934 -0.00943882 0.00128682 0.0248099
internal_weight=46.7433 36.8106 33.4915 26.1964 7.29509 22.5163 18.1972 13.9073 10.0962 9.9327
internal_count=257 215 189 144 45 122 101 78 55 42
is_linear=0
shrinkage=0.05


Tree=19
num_leaves=11
num_cat=0
split_feature=3 3 1 5 1 3 4 4 1 4
split_gain=2.7927 2.19262 1.63946 1.50559 2.14771 2.23267 2.04142 1.8541 1.40524 1.15776
threshold=0.6077536386960215 2.8201388426480061 -143.40624999999997 62.211389813810818 619.84570312500011 1.1887302650451153 1.2417571300309753 3.1002544806155625 1298.7714843750002 0.40529504592279153
decision_type=2 2 2 2 2 2 2 2 2 2
left_child=9 2 -2 -4 6 -6 -5 8 -7 -1
right_child=1 -3 3 4 5 7 -8 -9 -10 -11
leaf_value=-0.057349996214742571 0.03130470357152202 0.039046098371838603 0.019826435241057566 -0.057671033844605916 0.027141317253663772 -0.0038532791278677336 -0.0052186256743909434 0.010808726957319076 -0.045743686615414447 -0.011969614490524031
leaf_weight=2.6409872248768798 3.8565678000450125 4.0901188552379599 5.8627936691045752 3.6534620821476009 5.6265469789505032 3.8095916509628278 3.7682778537273407 6.0370682477951041 4.2192597314715385 3.0042797178030014
leaf_count=24 20 18 31 20 29 21 20 31 23 20
internal_value=-0.000232637 0.00431503 0.000458382 -0.00314901 -0.00811689 0.000522078 -0.0310391 -0.010126 -0.0258672 -0.0331996
internal_weight=46.569 40.9237 36.8336 32.977 27.1142 19.6925 7.42174 14.0659 8.02885 5.64527
internal_count=257 213 195 175 144 104 40 75 44 44
is_linear=0
shrinkage=0.05


Tree=20
num_leaves=10
num_cat=0
split_feature=0 0 4 0 0 4 4 5 5
split_gain=2.80378 1.9953 1.33401 2.35508 1.94456 1.35133 2.74944 1.26711 1.17508
threshold=0.32235499980818633 0.92972660904221593 -0.73822737438416064 0.39368716305044732 0.58708778264650363 1.2417571300309753 4.9508144174546551 69.016020021500552 73.00062255543925
decision_type=2 2 2 2 2 2 2 2 2
left_child=7 2 4 -4 -2 -5 8 -1 -7
right_child=1 -3 3 5 -6 6 -8 -9 -10
leaf_value=-0.058716183133956185 -0.047976401096224523 0.026424133754261992 0.041478993768698319 0.017327707763911727 0.0056199537303445292 -0.013830872551888133 0.016741232553474771 -0.0105457515448038 -0.050160812162807683
leaf_weight=2.6467944309115401 3.3640611991286233 8.1336085647344571 3.5940334647893968 6.3986499756574657 3.4056153818964958 6.6978039443492907 6.0646961480379096 2.8194226399064064 3.3335258960723877
leaf_count=23 22 33 19 34 20 39 29 18 20
internal_value=-0.000233386 0.00425205 -0.00123633 0.00389565 -0.0210137 -0.00210914 -0.00983587 -0.0338703 -0.0259037
internal_weight=46.4582 40.992 32.8584 26.0887 6.76968 22.4947 16.096 5.46622 10.0313
internal_count=257 216 183 141 42 122 88 41 59
is_linear=0
shrinkage=0.05


Tree=21
num_leaves=11
num_cat=0
split_feature=0 3 1 1 0 1 1 5 5 4
split_gain=2.58732 1.86578 1.94877 2.27641 2.00734 2.44096 2.94946 2.04366 1.44787 0.598503
threshold=0.32235499980818633 2.8201388426480061 -177.70703124999997 193.73828125000003 0.64292154957441594 871.21093750000011 1581.5703125000002 63.948815168999808 69.659605649135457 1.5759838127602412
decision_type=2 2 2 2 2 2 2 2 2 2
left_child=8 2 -2 -4 5 -5 -7 -6 -1 -9
right_child=1 -3 3 4 7 6 -8 9 -10 -11
leaf_value=-0.058619068954861811 0.032010186281922787 0.035916952462421395 -0.041235329252086873 0.040155894471044937 0.012764519945305006 -0.0253923914202785 0.026286630816069918 -0.043998371168271495 -0.0065423160804418765 -0.016544125897886983
leaf_weight=2.709750421345233 4.3204974159598342 4.1264959275722495 3.5983200073242179 5.3491741865873399 4.4970968216657621 5.8433177471160871 5.2338865175843239 3.7303225249052048 2.630222499370575 4.2431511804461479
leaf_count=24 23 18 21 27 24 32 29 20 17 22
internal_value=-0.000234115 0.00403533 0.000461874 -0.00373272 0.000937201 0.0124194 -0.000974485 -0.0141873 -0.0329685 -0.0293884
internal_weight=46.2822 40.9423 36.8158 32.4953 28.8969 16.4264 11.0772 12.4706 5.33997 7.97347
internal_count=257 216 198 175 154 88 61 66 41 42
is_linear=0
shrinkage=0.05


Tree=22
num_leaves=9
num_cat=0
split_feature=0 1 1 5 1 2 5 0
split_gain=2.47077 2.02986 3.11211 2.8319 1.78523 3.55886 3.36668 2.29263
threshold=0.91556862506111802 193.73828125000003 -243.64062499999997 61.182753964707196 2138.1484375000005 4.359875965198345 73.771381125932706 0.41997370010475682
decision_type=2 2 2 2 2 2 2 2
left_child=1 2 -1 -3 5 6 7 -5
right_child=-2 3 -4 4 -6 -7 -8 -9
leaf_value=0.00038640608795626028 0.02366033432176478 -0.038547849959398556 -0.060963145060042002 -0.022524378405180762 -0.021637650543066659 0.043769536030091621 -0.046425337853201271 0.02728834807566782
leaf_weight=4.5330881848931313 8.7642442733049375 4.0214120149612453 3.8000010177493078 3.3254860714078003 4.5613269582390776 6.4284136593341819 3.1767874211072913 7.5636459812521935
leaf_count=28 36 27 28 20 27 31 21 39
internal_value=-0.000235552 -0.00583375 -0.0275898 0.000401243 0.00665254 0.012949 -0.00113669 0.0120758
internal_weight=46.1744 37.4102 8.33309 29.0771 25.0557 20.4943 14.0659 10.8891
internal_count=257 221 56 165 138 111 80 59
is_linear=0
shrinkage=0.05


Tree=23
num_leaves=10
num_cat=0
split_feature=0 2 2 2 2 1 3 2 4
split_gain=2.28475 1.9753 3.15044 2.57757 3.52672 2.23594 3.62669 0.865596 0.232517
threshold=0.32235499980818633 7.4635696708248549 3.5154557025106929 0.70294185685608479 1.0000000180025095e-35 -143.40624999999997 1.0898077635792471 1.5764672020636619 0.53076259900411582
decision_type=2 2 2 2 2 2 2 2 2
left_child=8 2 3 4 5 -2 -7 -5 -1
right_child=1 -3 -4 7 -6 6 -8 -9 -10
leaf_value=-0.02101843810875148 0.033968105267961998 -0.031249440928075835 0.038885032798772444 -0.037727102973595467 0.04431802611116966 -0.044644624211842898 0.012206834597784801 -0.0081065749374003553 -0.042282618859394321
leaf_weight=2.5718247964978209 3.3250738382339486 3.6753356903791419 6.4693847671151152 4.1007330715656263 5.6632650494575492 4.9814363420009649 6.4212701320648193 6.1887006312608719 2.5704728066921234
leaf_count=23 18 19 32 21 27 31 34 34 18
internal_value=-0.000239076 0.00371712 0.00717646 0.000490288 0.0107851 -0.00210925 -0.0126295 -0.0199115 -0.0316477
internal_weight=45.9675 40.8252 37.1499 30.6805 20.391 14.7278 11.4027 10.2894 5.1423
internal_count=257 216 197 165 110 83 65 55 41
is_linear=0
shrinkage=0.05


Tree=24
num_leaves=9
num_cat=0
split_feature=0 1 1 5 1 4 1 2
split_gain=2.19892 1.88357 2.87328 2.56749 1.63829 3.44319 2.77106 1.34068
threshold=0.91556862506111802 193.73828125000003 -243.64062499999997 61.182753964707196 2138.1484375000005 0.78747460859691665 986.19726562500011 0.37132296984748608
decision_type=2 2 2 2 2 2 2 2
left_child=1 2 -1 -3 5 7 -7 -5
right_child=-2 3 -4 4 -6 6 -8 -9
leaf_value=-0.00043754577372794376 0.022264758531205995 -0.037328941921612041 -0.060182626667358602 -0.036600900958360515 -0.020970997289502576 0.055851595720081575 0.0080646800367923984 0.0044173235823652835
leaf_weight=4.5649299398064613 8.7767012715339643 3.8967119082808521 3.5989641323685628 3.441645905375486 4.5119967311620703 5.3983145058155042 6.9256516918540001 4.7298752218484879
leaf_count=28 36 27 28 22 27 27 36 26
internal_value=-0.000239479 -0.00556786 -0.0267755 0.00042217 0.00630462 0.0123092 0.028997 -0.0128586
internal_weight=45.8448 37.0681 8.16389 28.9042 25.0075 20.4955 12.324 8.17152
internal_count=257 221 56 165 138 111 63 48
is_linear=0
shrinkage=0.05


Tree=25
num_leaves=12
num_cat=0
split_feature=0 3 1 1 0 3 4 0 3 5 5
split_gain=2.04851 1.52464 1.55674 1.7065 1.92959 2.08895 2.74413 2.46896 2.0056 2.56017 1.36811
threshold=0.32235499980818633 2.8201388426480061 -177.70703124999997 193.73828125000003 0.64292154957441594 1.1887302650451153 2.1447575231909624 0.47181662674165153 1.3565847729818497 68.207458241499467 69.659605649135457
decision_type=2 2 2 2 2 2 2 2 2 2 2
left_child=10 2 -2 -4 5 7 -7 -5 -6 -10 -1
right_child=1 -3 3 4 8 6 -8 -9 9 -11 -12
leaf_value=-0.057443243620785484 0.028000045585132662 0.032199903781062841 -0.037682054503145386 0.0016573644698784724 -0.044528777421184856 -0.038854042062457829 0.019886045418827034 0.055927583314127061 0.027000288789877914 -0.027810057456451862 -0.0050503250455273341
leaf_weight=2.4212544858455649 4.4273497834801665 4.1465703397989264 3.3004385977983466 4.1631674617528969 3.8591402471065512 3.6337295174598676 4.390759564936161 4.2200377732515335 4.1576367691159231 4.3696761727333069 2.5669717863202095
leaf_count=24 23 18 21 22 23 21 23 22 20 23 17
internal_value=-0.000240733 0.00346847 0.00020641 -0.00362764 0.000275744 0.0115218 -0.00671323 0.0289766 -0.0146213 -0.00108634 -0.0304815
internal_weight=45.6567 40.6685 36.5219 32.0946 28.7941 16.4077 8.02449 8.38321 12.3865 8.52731 4.98823
internal_count=257 216 198 175 154 88 44 44 66 43 41
is_linear=0
shrinkage=0.05


Tree=26
num_leaves=11
num_cat=0
split_feature=3 4 4 4 0 0 3 2 1 3
split_gain=1.98177 1.80644 1.44881 2.37415 2.97039 1.82192 2.0869 1.68917 2.3644 1.16203
threshold=0.6077536386960215 0.78747460859691665 6.351334521934656 5.1713108764392564 1.1533850349678783 0.50426448370265298 0.79211786688017038 1.0084414784564475 851.01171875000011 1.8714489878520759
decision_type=2 2 2 2 2 2 2 2 2 2
left_child=1 -1 3 4 5 6 -2 8 -7 -9
right_child=2 -3 -4 -5 -6 7 -8 9 -10 -11
leaf_value=-0.05749307666600733 -0.016686530635634932 0.0023898801799734359 -0.025923403353806076 0.042848276080445842 0.042590897410020166 -0.026859662527749757 0.028554807021030373 -0.052626429777608563 0.020637450476308175 -0.011947685651244207
leaf_weight=2.7163067311048499 3.9763747751712817 2.3480062410235405 3.8033712208271018 4.0014523118734351 3.9673873782157889 4.8015122786164302 7.1010396480560303 3.5618070587515822 5.7673605680465698 3.4619689360260963
leaf_count=27 23 17 18 18 16 28 38 22 30 20
internal_value=-0.000242997 -0.0297291 0.00344935 0.00649844 0.00204184 -0.00356937 0.0123149 -0.0135711 -0.000940818 -0.0325762
internal_weight=45.5066 5.06431 40.4423 36.6389 32.6375 28.6701 11.0774 17.5926 10.5689 7.02378
internal_count=257 44 213 195 177 161 61 100 58 42
is_linear=0
shrinkage=0.05


Tree=27
num_leaves=9
num_cat=0
split_feature=4 0 4 2 1 0 4 1
split_gain=1.86208 2.71066 2.16317 1.89877 3.05026 2.63961 1.70957 1.07238
threshold=-0.73822737438416064 0.58708778264650363 0.40529504592279153 2.7007607536951248 986.19726562500011 0.69993601995350496 3.383071946446536 193.73828125000003
decision_type=2 2 2 2 2 2 2 2
left_child=1 -1 -2 4 6 -5 7 -4
right_child=2 -3 3 5 -6 -7 -8 -9
leaf_value=-0.049194971527900991 0.030666310964667938 0.0028249776800802775 -0.034801839021098756 -0.0058514522993968364 -0.045643051398133072 0.043760886034472701 0.02537589177396395 0.0026303719940272475
leaf_weight=4.3061338067054731 6.7565934173762789 5.9845868945121765 3.2224853932857567 6.2321344316005689 4.6722761616110793 4.7051360830664635 4.7405222654342651 4.7099054679274559
leaf_count=34 39 31 21 33 28 22 24 25
internal_value=-0.000243145 -0.0189427 0.00524877 -0.000823397 -0.011111 0.0154914 0.00162041 -0.0125762
internal_weight=45.3298 10.2907 35.0391 28.2825 17.3452 10.9373 12.6729 7.93239
internal_count=257 65 192 153 98 55 70 46
is_linear=0
shrinkage=0.05


Tree=28
num_leaves=10
num_cat=0
split_feature=0 2 2 5 5 5 2 2 4
split_gain=1.73306 1.82755 2.59075 3.02742 2.36449 3.60325 1.68422 1.37472 1.53416
threshold=0.32235499980818633 7.4635696708248549 3.5154557025106929 75.816997106250781 69.016020021500552 66.835859066086712 0.29988730335591929 0.70294185685608479 -0.32919856772563816
decision_type=2 2 2 2 2 2 2 2 2
left_child=6 2 3 4 5 7 -1 8 -2
right_child=1 -3 -4 -5 -6 -7 -8 -9 -10
leaf_value=-0.056993818651569508 -0.0072266611742827849 -0.030753103190443699 0.035058741047674612 -0.040516217973127926 0.029059314139694682 -0.041445677657967986 0.0025864021274395405 -0.017310061501491072 0.033419227351606969
leaf_weight=2.5053259357810012 3.6155670434236544 3.6254796013236037 6.5143916755914679 3.95028182119131 8.022349610924719 4.6617763787508002 2.2526321038603783 3.5470336601138106 6.4864784479141306
leaf_count=26 21 19 32 26 39 25 15 20 34
internal_value=-0.000242622 0.00311701 0.00645403 0.000300767 0.00642378 -0.0034933 -0.0287859 0.00946916 0.0188719
internal_weight=45.1813 40.4234 36.7979 30.2835 26.3332 18.3109 4.75796 13.6491 10.102
internal_count=257 216 197 165 139 100 41 75 55
is_linear=0
shrinkage=0.05


Tree=29
num_leaves=10
num_cat=0
split_feature=0 1 1 5 1 4 0 2 0
split_gain=1.66034 1.54046 2.68992 2.29882 1.47854 2.8525 2.42739 2.37765 2.24912
threshold=0.91556862506111802 193.73828125000003 -243.64062499999997 61.182753964707196 2138.1484375000005 4.9508144174546551 0.63758597279436058 1.0000000180025095e-35 0.41997370010475682
decision_type=2 2 2 2 2 2 2 2 2
left_child=1 2 -1 -3 5 6 7 -5 -9
right_child=-2 3 -4 4 -6 -7 -8 8 -10
leaf_value=0.00050770874850943851 0.019266424552673474 -0.03619726767346193 -0.059131747821923812 -0.018415361111115778 -0.020201676028158169 0.048150642837200275 -0.034868727768850825 0.0016523691333807803 0.053366397705229898
leaf_weight=4.4656780809164047 8.7798894345760328 3.7294370681047466 3.2788283526897422 4.2161700725555518 4.4497551620006552 4.23157013952732 3.4925346672534934 4.1916798502206785 4.2183848768472672
leaf_count=28 36 27 28 27 27 19 22 23 20
internal_value=-0.000243485 -0.00496573 -0.0247421 0.00040269 0.00590659 0.0116154 0.00202396 0.0122288 0.0275915
internal_weight=45.0539 36.274 7.74451 28.5295 24.8001 20.3503 16.1188 12.6262 8.41006
internal_count=257 221 56 165 138 111 92 70 43
is_linear=0
shrinkage=0.05


Tree=30
num_leaves=9
num_cat=0
split_feature=4 0 4 2 1 0 2 0
split_gain=1.58281 2.5101 1.9785 1.60983 2.7564 2.21502 1.64618 1.45321
threshold=-0.73822737438416064 0.58708778264650363 0.40529504592279153 2.7007607536951248 986.19726562500011 0.69993601995350496 0.70294185685608479 0.50426448370265298
decision_type=2 2 2 2 2 2 2 2
left_child=1 -1 -2 4 6 -5 7 -4
right_child=2 -3 3 5 -6 -7 -8 -9
leaf_value=-0.047969166055250208 0.029019143608730088 0.003006879846666016 -0.0072496024906770753 -0.0058300474245998359 -0.044149555402795672 0.039529242447110868 -0.024864360360562558 0.034092169272772352
leaf_weight=4.0772927142679674 6.7846058718860141 5.9229298979043961 4.1602878868579918 6.1910031959414464 4.5203171223402014 4.7613945975899696 4.0473392754793158 4.346377894282341
leaf_count=34 39 31 26 33 28 22 22 22
internal_value=-0.000244543 -0.0177771 0.00479202 -0.0010728 -0.0106703 0.0138892 0.00138462 0.0138735
internal_weight=44.8115 10.0002 34.8113 28.0267 17.0743 10.9524 12.554 8.50667
internal_count=257 65 192 153 98 55 70 48
is_linear=0
shrinkage=0.05


Tree=31
num_leaves=12
num_cat=0
split_feature=3 4 4 3 1 1 3 3 0 4 0
split_gain=1.54747 1.83024 1.38803 1.81648 1.54873 1.90328 1.50212 2.70262 2.99462 1.99538 0.900272
threshold=0.6077536386960215 0.83193916609082941 6.351334521934656 2.6801716931713826 -177.70703124999997 619.84570312500011 0.95900085094124277 1.1887302650451153 0.69993601995350496 1.1763511268053368 0.62126016590239741
decision_type=2 2 2 2 2 2 2 2 2 2 2
left_child=1 -1 3 4 -2 10 -7 -8 9 -9 -6
right_child=2 -3 -4 -5 5 6 7 8 -10 -11 -12
leaf_value=-0.056547006987335426 0.033052335908387687 0.0058006604682106586 -0.025990372153697639 0.038984388756442848 -0.0081450617404995197 -0.021318666264324951 0.048028667952553762 -0.048739445948702519 0.030231792526201097 0.0023264279066715315 -0.043449338433781987
leaf_weight=2.5089939944446078 3.6062846332788423 2.2173498719930649 3.7517135441303244 3.7342084348201743 4.0939879044890466 4.1295234113931683 4.0452478155493763 3.1841502860188466 5.3725339323282242 4.7916256710886955 3.2307647541165352
leaf_count=28 18 16 18 16 25 23 21 20 27 26 19
internal_value=-0.000242776 -0.0272968 0.00295869 0.00595989 0.00216005 -0.00170181 0.00579038 0.0122265 0.00137658 -0.0180605 -0.0237169
internal_weight=44.6664 4.72634 39.94 36.1883 32.4541 28.8478 21.5231 17.3936 13.3483 7.97578 7.32475
internal_count=257 44 213 195 179 161 117 94 73 46 44
is_linear=0
shrinkage=0.05


Tree=32
num_leaves=11
num_cat=0
split_feature=3 4 4 0 3 3 4 4 5 1
split_gain=1.44212 1.22178 1.97292 2.26285 1.99715 1.4069 2.21268 1.97982 0.951 1.79883
threshold=0.53841335185763484 6.351334521934656 5.2977274543948409 1.1533850349678783 1.2063817179916454 1.0594781521571022 0.9564709482398287 -0.15999874732178157 68.929692874591112 1694.4121093750002
decision_type=2 2 2 2 2 2 2 2 2 2
left_child=-1 2 3 4 5 6 7 -2 -6 -10
right_child=1 -3 -4 -5 8 -7 -8 -9 9 -11
leaf_value=-0.030660966715752455 -0.0077101750208919424 -0.024893299460420695 0.04110608379855412 0.036959907008990177 -0.036992482560703414 0.036186006092586945 -0.023266566816162827 0.046481632676474746 0.010358225696706254 -0.032658515697545569
leaf_weight=3.5829457864165297 3.3193961717188314 3.7219756245613089 3.4607057422399512 3.9627460390329352 4.1689751893281928 3.6481043994426718 5.345602311193943 3.4237412959337297 5.5402600914239866 4.3293896466493607
leaf_count=35 23 18 15 16 23 20 31 19 31 26
internal_value=-0.000243361 0.00241994 0.00515279 0.00146488 -0.00325907 0.00897159 0.0007589 0.019805 -0.0169692 -0.00851136
internal_weight=44.5038 40.9209 37.1989 33.7382 29.7755 15.7368 12.0887 6.74314 14.0386 9.86965
internal_count=257 222 204 189 173 93 73 42 80 57
is_linear=0
shrinkage=0.05


Tree=33
num_leaves=10
num_cat=0
split_feature=0 2 2 2 5 5 5 2 5
split_gain=1.4152 2.13459 1.63998 1.97745 2.74434 2.11965 3.19416 1.22091 1.18018
threshold=0.32235499980818633 0.70294185685608479 7.4635696708248549 3.5154557025106929 75.816997106250781 69.016020021500552 66.835859066086712 0.70294185685608479 61.182753964707196
decision_type=2 2 2 2 2 2 2 2 2
left_child=1 -1 3 4 5 6 7 8 -2
right_child=2 -3 -4 -5 -6 -7 -8 -9 -10
leaf_value=-0.057194953175051313 -0.0027881055883756133 0.012422569981824869 -0.029715086421340242 0.030804625854419711 -0.039365301787966211 0.027619296579069575 -0.03988122050283751 -0.016712337780211372 0.032041824792740183
leaf_weight=2.5292919017374507 4.1384617388248532 1.9499397948384283 3.5436690375208846 6.5449080616235724 3.7785825133323661 8.0170518010854703 4.4795968085527411 3.4732475429773322 5.8986680507659912
leaf_count=28 24 13 19 32 26 39 25 20 31
internal_value=-0.000240758 -0.0268884 0.00275268 0.00591958 0.000451494 0.00623651 -0.00329251 0.0088391 0.0176809
internal_weight=44.3534 4.47923 39.8742 36.3305 29.7856 26.007 17.99 13.5104 10.0371
internal_count=257 41 216 197 165 139 100 75 55
is_linear=0
shrinkage=0.05


Tree=34
num_leaves=10
num_cat=0
split_feature=0 2 2 2 5 5 5 2 5
split_gain=1.305 2.03733 1.49463 1.76814 2.52647 1.89505 2.92595 1.09847 1.04783
threshold=0.32235499980818633 0.70294185685608479 7.4635696708248549 3.5154557025106929 75.816997106250781 69.016020021500552 66.835859066086712 0.70294185685608479 61.182753964707196
decision_type=2 2 2 2 2 2 2 2 2
left_child=1 -1 3 4 5 6 7 8 -2
right_child=2 -3 -4 -5 -6 -7 -8 -9 -10
leaf_value=-0.056819752608832388 -0.0026517080179338254 0.01171724931508978 -0.028601869841247091 0.029038721184857369 -0.038275310913018099 0.026009933880466747 -0.038535301273781353 -0.015988275184922261 0.030105328297254319
leaf_weight=2.4214218445122233 4.1338887736201375 1.9635886847972868 3.4986792877316466 6.5944496765732756 3.6940535902976981 8.0856227576732618 4.4061482474207869 3.4496306478977194 5.9624855816364288
leaf_count=28 24 13 19 32 26 39 25 20 31
internal_value=-0.000240688 -0.0261292 0.00260982 0.0056159 0.000420771 0.00591069 -0.00314197 0.00837052 0.0166932
internal_weight=44.21 4.38501 39.825 36.3263 29.7318 26.0378 17.9522 13.546 10.0964
internal_count=257 41 216 197 165 139 100 75 55
is_linear=0
shrinkage=0.05


Tree=35
num_leaves=10
num_cat=0
split_feature=4 0 4 2 5 2 3 2 4
split_gain=1.30743 2.24723 1.75824 1.33362 2.49635 1.83596 1.4489 0.759097 0.545312
threshold=-0.73822737438416064 0.58708778264650363 -0.062519481859354784 3.1750439724869923 73.24303884277154 1.0084414784564475 1.0501717377039201 6.8910657264760902 2.4171838358629572
decision_type=2 2 2 2 2 2 2 2 2
left_child=1 -1 -2 4 5 6 8 -5 -4
right_child=2 -3 3 7 -6 -7 -8 -9 -10
leaf_value=-0.046529659652587541 0.036114704448303475 0.0029162235388620391 0.012910669655059005 0.026535939274616789 -0.041991147562916505 -0.023484553443560034 0.035890959443640943 -0.0015012326570758773 -0.014669984915938621
leaf_weight=3.7867093756794912 3.8596713356673709 5.8444338217377663 3.5670165345072835 5.9919933229684812 4.0835144519805899 5.0298537984490386 4.2528730183839798 4.0431702136993408 3.6017759963870049
leaf_count=34 21 31 23 29 27 28 21 21 22
internal_value=-0.000239835 -0.0165246 0.00431553 0.000300697 -0.0069998 0.00168558 0.01277 0.0152398 -0.000946523
internal_weight=44.061 9.63114 34.4299 30.5702 20.535 16.4515 11.4217 10.0352 7.16879
internal_count=257 65 192 171 121 94 66 50 45
is_linear=0
shrinkage=0.05


Tree=36
num_leaves=9
num_cat=0
split_feature=0 1 1 5 1 2 0 3
split_gain=1.26524 1.39017 2.43782 1.45204 1.05933 2.27322 1.7849 1.05763
threshold=0.92972660904221593 193.73828125000003 -243.64062499999997 61.39177191466969 2138.1484375000005 4.359875965198345 0.41997370010475682 1.2735482252852321
decision_type=2 2 2 2 2 2 2 2
left_child=1 2 -1 -3 5 6 -5 -8
right_child=-2 3 -4 4 -6 -7 7 -9
leaf_value=7.8618283589730297e-05 0.017599538527614068 -0.027044210404148616 -0.058424606480178158 -0.029622326557486003 -0.017453178529408385 0.034093124148980726 0.02525032049052759 -0.0082082221586256728
leaf_weight=4.4010939598083496 8.1070525795221311 4.0328308753669289 2.9906749986112109 4.0104923956096235 4.2154142931103697 6.6310416460037223 5.2278584539890272 4.3083719685673714
leaf_count=28 33 30 28 27 26 31 27 27
internal_value=-0.000237357 -0.00427459 -0.0235915 0.000748495 0.00534336 0.0101059 -0.00163575 0.0101341
internal_weight=43.9248 35.8178 7.39177 28.426 24.3932 20.1778 13.5467 9.53623
internal_count=257 224 56 168 138 112 81 54
is_linear=0
shrinkage=0.05


Tree=37
num_leaves=10
num_cat=0
split_feature=4 4 1 4 2 1 2 4 1
split_gain=1.20851 1.89889 1.43454 1.67813 1.08617 2.58796 1.39074 1.22997 1.12707
threshold=-0.47456985650770606 0.40529504592279153 1625.6757812500002 -2.2229318694637552 2.7007607536951248 481.88671875000006 1.0084414784564475 3.3248963513178906 1891.1953125000002
decision_type=2 2 2 2 2 2 2 2 2
left_child=2 -2 3 -1 5 7 -7 -3 -6
right_child=1 4 -4 -5 8 6 -8 -9 -10
leaf_value=-0.00016989097639401196 0.029300920769416591 -0.0062551560658717356 0.013068615564032205 -0.049637470679352765 0.027970157469164838 -0.012481540975420216 -0.05312270814215652 0.034449068259603428 -0.0041690287867024766
leaf_weight=3.0467575043439865 6.1977250985801211 4.0606843382120195 3.0590323135256767 3.9206464923918229 5.1284004077315313 5.7394146695733053 3.324198842048645 3.4181621000170708 5.8276723697781563
leaf_count=20 36 27 16 32 26 32 21 18 29
internal_value=-0.000235134 0.00429931 -0.0154742 -0.0280059 -0.00133565 -0.00942272 -0.0273872 0.0123485 0.0108749
internal_weight=43.7227 33.6963 10.0264 6.9674 27.4985 16.5425 9.06361 7.47885 10.9561
internal_count=257 189 68 52 153 98 53 45 55
is_linear=0
shrinkage=0.05


Tree=38
num_leaves=11
num_cat=0
split_feature=3 2 2 1 0 5 5 0 5 1
split_gain=1.1339 0.847518 1.63482 1.38362 2.33946 1.13519 2.44619 2.30163 1.61239 0.278987
threshold=0.6077536386960215 7.4635696708248549 4.9153548993669505 -177.70703124999997 0.41997370010475682 63.948815168999808 69.122809507102076 0.58708778264650363 66.835859066086712 193.73828125000003
decision_type=2 2 2 2 2 2 2 2 2 2
left_child=9 2 3 -2 -5 -6 8 -8 -7 -1
right_child=1 -3 -4 4 5 6 7 -9 -10 -11
leaf_value=-0.036574925828020521 0.0300154698431708 -0.019744395418319557 0.034148175080732091 -0.035508590300557891 0.02295753393898339 -0.00078900234231658439 -0.013019178886611266 0.035515770536960582 -0.047382932736000749 -0.011205174121317928
leaf_weight=2.2718014046549788 3.6159040778875342 3.8773385658860198 4.2041624039411536 4.5808131545782151 5.7065056264400509 3.6594551131129291 4.4599985331296903 5.4004167094826698 3.7691270783543587 2.0720151923596859
leaf_count=24 18 21 20 28 31 19 27 28 21 20
internal_value=-0.000232992 0.00244809 0.00487907 0.00093411 -0.00287914 0.0036208 -0.00276159 0.0135628 -0.0244299 -0.0244735
internal_weight=43.6175 39.2737 35.3964 31.1922 27.5763 22.9955 17.289 9.86042 7.42858 4.34382
internal_count=257 213 192 172 154 126 95 55 40 44
is_linear=0
shrinkage=0.05


Tree=39
num_leaves=11
num_cat=0
split_feature=4 0 1 2 3 2 2 4 1 0
split_gain=1.13726 2.23288 1.98998 3.07122 1.39817 1.88722 1.98623 1.65118 1.2447 1.62456
threshold=-0.47456985650770606 0.91556862506111802 2138.1484375000005 4.359875965198345 1.2735482252852321 1.0084414784564475 0.11711459432361405 1.7137120606515019 1625.6757812500002 0.72074336347961354
decision_type=2 2 2 2 2 2 2 2 2 2
left_child=8 2 3 4 5 6 7 -2 9 -1
right_child=1 -3 -4 -5 -6 -7 -8 -9 -10 -11
leaf_value=-0.048364263779283094 0.024173972711589175 0.032956921811279599 -0.035951095050743537 0.03438744226352923 -0.031236480655457744 -0.033063771372826414 0.044994733365817025 -0.022719603624830356 0.011255549367862636 0.00097895072532069752
leaf_weight=3.8675736263394338 3.2926516383886426 5.6059653759002677 3.6668677181005469 6.0655420720577231 4.3990936428308478 3.1275493577122679 3.0780448094010353 4.3667062111198902 3.0741257593035698 2.9331748485565186
leaf_count=36 24 23 24 28 28 20 16 26 16 16
internal_value=-0.000230289 0.0041535 -0.00161405 0.0035611 -0.00667641 0.00111604 0.0110718 -0.00256071 -0.0151475 -0.0270824
internal_weight=43.4773 33.6024 27.9965 24.3296 18.264 13.865 10.7374 7.65936 9.87487 6.80075
internal_count=257 189 166 142 114 86 66 50 68 52
is_linear=0
shrinkage=0.05


Tree=40
num_leaves=10
num_cat=0
split_feature=3 4 4 0 3 5 5 5 0
split_gain=1.04453 1.01932 1.51396 1.65523 1.96112 1.24482 1.78005 0.885908 1.26333
threshold=0.53841335185763484 6.351334521934656 5.2977274543948409 1.1533850349678783 1.2063817179916454 65.223933470431732 70.043904724538351 68.929692874591112 0.59997416113706348
decision_type=2 2 2 2 2 2 2 2 2
left_child=-1 2 3 4 5 -2 -7 -6 -9
right_child=1 -3 -4 -5 7 6 -8 8 -10
leaf_value=-0.027488897589653852 -0.0092730347946966621 -0.023524665442023321 0.036142212639315149 0.031682543644708509 -0.036239008177919162 0.045354673417835056 0.001979228140421715 -0.026486411141976904 0.0097416550761159747
leaf_weight=3.2503273524343959 5.6699834465980556 3.5666206926107398 3.4215209931135169 3.9239497184753409 4.0678230747580519 4.0807548165321332 5.6265420392155647 4.8223371058702451 4.8032802268862724
leaf_count=35 36 18 15 16 23 23 34 30 27
internal_value=-0.000230801 0.00198509 0.00448353 0.00120055 -0.00291389 0.00934102 0.0202134 -0.0166757 -0.00840824
internal_weight=43.2331 39.9828 36.4162 32.9947 29.0707 15.3773 9.7073 13.6934 9.62562
internal_count=257 222 204 189 173 93 57 80 57
is_linear=0
shrinkage=0.05


Tree=41
num_leaves=10
num_cat=0
split_feature=4 4 1 4 3 3 2 1 1
split_gain=1.06426 1.58206 1.11765 1.53105 0.951346 1.48577 2.54816 1.18625 0.878574
threshold=-0.47456985650770606 0.40529504592279153 1625.6757812500002 -2.2229318694637552 0.90447505999083355 1.3008021433887127 2.7007607536951248 2022.1445312500002 203.76171875000003
decision_type=2 2 2 2 2 2 2 2 2
left_child=2 -2 3 -1 8 -6 -7 -8 -3
right_child=1 4 -4 -5 5 6 7 -9 -10
leaf_value=0.00029065390238753127 0.026699418178731494 -0.00033332885278534037 0.010160429871679012 -0.04793664155678265 0.024631664702129852 -0.033410556926901758 0.028145064165597811 -0.0086952861514597336 -0.035574514660927065
leaf_weight=2.9848678410053253 6.2479132637381545 3.7536578029394176 3.0728502944111824 3.6679655611515027 6.2300085946917561 4.971911944448947 4.7958341911435109 4.0139332786202431 3.3441686481237411
leaf_count=20 36 26 16 32 33 30 22 21 21
internal_value=-0.000225744 0.00401755 -0.0147795 -0.0262989 -0.00120993 0.00436834 -0.00479169 0.0113598 -0.0169374
internal_weight=43.0831 33.3574 9.72568 6.65283 27.1095 20.0117 13.7817 8.80977 7.09783
internal_count=257 189 68 52 153 106 73 43 47
is_linear=0
shrinkage=0.05


Tree=42
num_leaves=10
num_cat=0
split_feature=0 2 2 0 2 2 2 3 3
split_gain=0.99324 1.95088 1.37201 1.23956 1.73851 1.69746 3.73315 3.52385 1.03914
threshold=0.32235499980818633 0.70294185685608479 7.4635696708248549 0.39368716305044732 3.5154557025106929 0.70294185685608479 1.0000000180025095e-35 1.0898077635792471 1.8130860492295653
decision_type=2 2 2 2 2 2 2 2 2
left_child=1 -1 3 -2 5 6 7 -5 -7
right_child=2 -3 -4 4 -6 8 -8 -9 -10
leaf_value=-0.056165691653833387 0.032274830531110563 0.013269687879702639 -0.027907653750807095 -0.03934393180513493 0.026290070912130065 -0.037586240939040755 0.04217734579158839 0.014212539183564335 -0.0020168033317587947
leaf_weight=2.1664041876792899 3.7670950815081587 1.8977619484066961 3.441320188343524 5.478628210723409 5.9517318680882445 4.7466469928622228 4.9031822457909575 6.9901213943958282 3.618746891617775
leaf_count=28 22 13 19 36 28 30 24 39 18
internal_value=-0.000223161 -0.0237428 0.00223427 0.0051598 0.00193645 -0.0036953 0.0052153 -0.00931957 -0.0221994
internal_weight=42.9616 4.06417 38.8975 35.4562 31.6891 25.7373 17.3719 12.4687 8.36539
internal_count=257 41 216 197 175 147 99 75 48
is_linear=0
shrinkage=0.05


Tree=43
num_leaves=10
num_cat=0
split_feature=4 4 1 4 3 3 2 3 1
split_gain=1.01604 1.42439 0.999547 1.42894 0.813725 1.37032 2.29564 1.11702 0.828767
threshold=-0.47456985650770606 0.40529504592279153 1625.6757812500002 -2.2229318694637552 0.90447505999083355 1.3008021433887127 2.7007607536951248 2.3025114798322028 203.76171875000003
decision_type=2 2 2 2 2 2 2 2 2
left_child=2 -2 3 -1 8 -6 -7 -8 -3
right_child=1 4 -4 -5 5 6 7 -9 -10
leaf_value=-8.6405501680619299e-05 0.02539279069243541 0.00036541691407239744 0.0088734522298139929 -0.047132723396403314 0.0234832794847879 -0.032215509362338156 -0.0061076115337033773 0.029565252715497977 -0.034217974633925494
leaf_weight=2.967636413872242 6.2646707743406287 3.7059116922318962 3.0873053520917892 3.5384460631757957 6.2390785664320019 4.901027299463748 4.7239120602607709 4.0982682257890701 3.2529957070946693
leaf_count=20 36 26 16 32 33 30 23 20 21
internal_value=-0.000223888 0.00391914 -0.0145556 -0.0256734 -0.00107786 0.00405462 -0.00477837 0.0104639 -0.0158009
internal_weight=42.7793 33.1859 9.59339 6.50608 26.9212 19.9623 13.7232 8.82218 6.95891
internal_count=257 189 68 52 153 106 73 43 47
is_linear=0
shrinkage=0.05


Tree=44
num_leaves=10
num_cat=0
split_feature=4 4 3 5 4 5 1 5 5
split_gain=0.987763 0.969879 1.87924 0.985227 1.76721 1.63994 1.28701 1.61156 0.933544
threshold=-1.8740665023044467 6.351334521934656 2.4593890502182769 74.105988459886291 3.383071946446536 71.761342328574287 928.42578125000011 66.514867699477477 64.824471888697218
decision_type=2 2 2 2 2 2 2 2 2
left_child=-1 2 3 4 5 6 7 -2 -8
right_child=1 -3 -4 -5 -6 -7 8 -9 -10
leaf_value=-0.019707099975060011 -0.038345068936984167 -0.022320566739452333 0.039952620988818778 -0.02064475513774151 0.032688626168939881 0.031465800413142057 0.026034266310677068 0.0017771009338874465 -0.008913615022596107
leaf_weight=5.6429207734763613 5.1839274205267554 3.4934956133365622 3.5150050520896903 4.3659734874963751 4.719003200531005 3.2484542578458777 3.7576942816376677 4.8389662355184555 3.8880461156368256
leaf_count=38 38 18 17 31 25 16 22 32 20
internal_value=-0.000220772 0.00275027 0.00536341 0.00131098 0.00505016 -0.00118521 -0.00718824 -0.0189744 0.00826241
internal_weight=42.6535 37.0106 33.5171 30.0021 25.6361 20.9171 17.6686 10.0229 7.64574
internal_count=257 219 201 184 153 128 112 70 42
is_linear=0
shrinkage=0.05


Tree=45
num_leaves=10
num_cat=0
split_feature=4 0 1 0 4 0 1 0 3
split_gain=0.896561 1.83914 1.74919 1.60624 2.68735 1.64351 2.26494 0.851638 0.372456
threshold=-1.8740665023044467 0.91556862506111802 193.73828125000003 0.64292154957441594 4.500057321544352 0.41997370010475682 1040.3710937500002 0.4421116407816863 0.76025412106091661
decision_type=2 2 2 2 2 2 2 2 2
left_child=-1 2 7 5 -5 8 -7 -2 -4
right_child=1 -3 3 4 -6 6 -8 -9 -10
leaf_value=-0.018847408421243269 -0.0021359378675733713 0.027841640294433413 -0.018786164224917429 -0.040193316767041548 0.019366150712835584 0.051776128624268426 0.0044673875364289817 -0.039924946368102399 0.0052628443070081212
leaf_weight=5.6062543131411067 2.3903766758739975 6.0415833443403235 3.3872373029589715 4.4900253489613524 3.2755885273218155 4.4382151290774328 5.8841673955321312 3.9624697715044022 3.0684328153729439
leaf_count=38 22 25 26 32 16 21 34 27 16
internal_value=-0.000216254 0.00261148 -0.00232209 0.00373059 -0.0150707 0.0124327 0.0248083 -0.0257061 -0.00735547
internal_weight=42.5444 36.9381 30.8965 24.5437 7.76561 16.7781 10.3224 6.35285 6.45567
internal_count=257 219 194 145 48 97 55 49 42
is_linear=0
shrinkage=0.05


Tree=46
num_leaves=10
num_cat=0
split_feature=4 4 3 5 4 5 1 5 5
split_gain=0.813691 0.931795 1.61538 0.894103 1.556 1.40658 1.14145 1.47799 0.846207
threshold=-1.8740665023044467 6.351334521934656 2.4593890502182769 74.105988459886291 3.383071946446536 71.761342328574287 928.42578125000011 66.514867699477477 64.824471888697218
decision_type=2 2 2 2 2 2 2 2 2
left_child=-1 2 3 4 5 6 7 -2 -8
right_child=1 -3 -4 -5 -6 -7 8 -9 -10
leaf_value=-0.018021593051492455 -0.036955488844403452 -0.022131824978156276 0.037151937019162813 -0.019834961748568771 0.030697076738157598 0.028918498798520244 0.024656051791338066 0.0018078310026221679 -0.0086432376761650925
leaf_weight=5.5709184631705275 5.0205751247704153 3.4807278066873542 3.5074472799897185 4.2921101152896872 4.734822303056716 3.2911967337131491 3.7681499496102324 4.8197433911263943 3.8645073845982552
leaf_count=38 38 18 17 31 25 16 22 32 20
internal_value=-0.000213791 0.00248354 0.0050566 0.00127787 0.00483168 -0.00106637 -0.00671429 -0.0179694 0.00779622
internal_weight=42.3502 36.7793 33.2986 29.7911 25.499 20.7642 17.473 9.84032 7.63266
internal_count=257 219 201 184 153 128 112 70 42
is_linear=0
shrinkage=0.05


Tree=47
num_leaves=10
num_cat=0
split_feature=0 2 2 3 0 2 2 3 3
split_gain=0.780084 2.18671 1.38275 1.24809 1.46495 1.01646 2.33082 3.78988 1.83935
threshold=0.32235499980818633 1.0084414784564475 7.4635696708248549 2.6801716931713826 0.39368716305044732 0.70294185685608479 1.0000000180025095e-35 1.0898077635792471 1.5133471529573297
decision_type=2 2 2 2 2 2 2 2 2
left_child=1 -1 3 4 -2 6 7 -6 -7
right_child=2 -3 -4 -5 5 8 -8 -9 -10
leaf_value=-0.055490800541091102 0.03108324281468651 0.020230575862286358 -0.028288119750321136 0.03317585688905117 -0.037446782320097988 -0.03755989864778974 0.035795445917180639 0.020295443630620563 0.0029994258234891592
leaf_weight=2.1329898964613672 3.751575410366061 1.72411897405982 3.4426803886890402 3.5159068703651419 5.2520325556397491 4.7134630978107435 4.6438068076968184 6.1919911354780197 6.8685951977968216
leaf_count=30 22 11 19 15 36 29 23 36 36
internal_value=-0.000208933 -0.0216435 0.00194519 0.00492434 0.00176314 -0.00221218 0.00591905 -0.00620433 -0.0135067
internal_weight=42.2372 3.85711 38.3801 34.9374 31.4215 27.6699 16.0878 11.444 11.5821
internal_count=257 41 216 197 182 160 95 72 65
is_linear=0
shrinkage=0.05


Tree=48
num_leaves=11
num_cat=0
split_feature=4 4 3 5 4 5 4 4 5 3
split_gain=0.789286 0.860752 1.40725 0.815785 1.40476 1.26222 1.22846 2.47478 1.38417 0.748515
threshold=-1.8740665023044467 6.351334521934656 2.4593890502182769 74.105988459886291 3.383071946446536 71.761342328574287 -0.47456985650770606 0.40529504592279153 68.207458241499467 0.90447505999083355
decision_type=2 2 2 2 2 2 2 2 2 2
left_child=-1 2 3 4 5 6 -2 -8 9 -9
right_child=1 -3 -4 -5 -6 -7 7 8 -10 -11
leaf_value=-0.017819231858859114 -0.036456757847910908 -0.021313440380193432 0.034968084940196507 -0.018915815750461411 0.029322308886335153 0.027407262733523653 0.029989156028041416 -0.018081600106513714 -0.040584371793015023 0.015774236552522726
leaf_weight=5.5267436597496262 2.8219418860972008 3.4491179510951033 3.4888390079140654 4.2367876134812823 4.7423712462186804 3.3137217015027991 4.5802810005843684 3.2478951290249807 3.3531545102596283 3.2825900763273239
leaf_count=38 24 18 17 31 25 16 26 24 19 19
internal_value=-0.00020965 0.00245553 0.00493476 0.0013923 0.00478751 -0.000860819 -0.00627985 -0.000392265 -0.0144716 -0.00106375
internal_weight=42.0434 36.5167 33.0676 29.5787 25.342 20.5996 17.2859 14.4639 9.88364 6.53049
internal_count=257 219 201 184 153 128 112 88 62 43
is_linear=0
shrinkage=0.05


Tree=49
num_leaves=10
num_cat=0
split_feature=1 0 1 1 3 3 3 0 0
split_gain=0.753229 2.45524 3.24224 2.31915 1.74789 1.91699 1.91941 1.56763 3.02173
threshold=481.88671875000006 0.92972660904221593 193.73828125000003 -243.64062499999997 0.95900085094124277 1.1887302650451153 1.3565847729818497 1.0037978394678155 0.69175768568967377
decision_type=2 2 2 2 2 2 2 2 2
left_child=1 2 3 -1 -2 -6 -7 8 -8
right_child=4 -3 -4 -5 5 6 7 -9 -10
leaf_value=0.0030116456828340314 -0.030409156073380145 0.05508398313340427 0.042549448482196335 -0.05739962451866748 0.03059942692969729 -0.036994035012478804 -0.012548735333293003 -0.02383024979187234 0.03811681226463981
leaf_weight=4.1266934759914866 5.3356635160744217 2.4438066035509101 2.963516641408205 2.5830899421125642 4.5140975117683437 3.8901330083608654 6.1898292452096957 4.26500679552555 5.6101179569959641
leaf_count=28 38 10 21 28 24 23 37 18 30
internal_value=-0.000206014 0.0103053 -0.00100734 -0.0202451 -0.00447937 0.00117479 -0.00548144 0.00214934 0.0115395
internal_weight=41.922 12.1171 9.6733 6.70978 29.8048 24.4692 19.9551 16.065 11.7999
internal_count=257 87 77 56 170 132 108 85 67
is_linear=0
shrinkage=0.05


Tree=50
num_leaves=10
num_cat=0
split_feature=4 5 5 5 4 4 5 3 3
split_gain=0.730081 0.827249 0.863474 1.788 1.03252 2.04834 1.96595 0.872934 0.706935
threshold=-1.8740665023044467 78.784767258530238 73.24303884277154 71.738538495813501 -0.43442167198199483 0.40529504592279153 66.835859066086712 1.0501717377039201 1.3565847729818497
decision_type=2 2 2 2 2 2 2 2 2
left_child=-1 2 3 4 -2 -6 7 -7 -8
right_child=1 -3 -4 -5 5 6 8 -9 -10
leaf_value=-0.017207375933209319 -0.027737833045071127 0.021908025999498558 -0.017792391631837903 0.037435215352354528 0.033012322885773888 -0.0055571605373112374 -0.041532810784019158 0.028116350756303476 -0.0098403958891933006
leaf_weight=5.4856305476278058 3.2535038795322242 4.7112293764948836 5.9048568010330191 3.3567759394645682 4.3209197148680749 3.8375181555747968 3.4189106002449989 3.8610276505351067 3.6254660412669182
leaf_count=38 27 28 35 16 24 27 22 21 19
internal_value=-0.00020638 0.00236349 -0.000552334 0.00341275 -0.0017046 0.00273832 -0.00613452 0.011331 -0.025222
internal_weight=41.7758 36.2902 31.579 25.6741 22.3173 19.0638 14.7429 7.69855 7.04438
internal_count=257 219 191 156 140 113 89 48 41
is_linear=0
shrinkage=0.05


Tree=51
num_leaves=10
num_cat=0
split_feature=1 0 1 1 1 0 1 1 1
split_gain=0.715341 2.2479 2.87918 2.20722 1.63529 0.81859 2.52331 1.14817 1.90654
threshold=481.88671875000006 0.92972660904221593 193.73828125000003 -243.64062499999997 830.08984375000011 0.45449408357430698 1262.3046875000002 3106.6210937500005 2138.1484375000005
decision_type=2 2 2 2 2 2 2 2 2
left_child=1 2 3 -1 -2 -6 -7 8 -8
right_child=4 -3 -4 -5 5 6 7 -9 -10
leaf_value=0.003013166330948711 -0.028264454824663828 0.053018926952598723 0.039713428487894498 -0.056940369889751465 -0.017981387125990636 0.036317189519781856 0.0021896067020308638 0.018816561257184058 -0.04222600875353974
leaf_weight=4.1105072237551203 5.7673783581703928 2.4324925243854514 3.0058126859366894 2.4502949491143218 4.4398651756346252 5.0287858545780209 6.9726405441760999 3.7963984459638587 3.6972160562872887
leaf_count=28 36 10 21 28 27 28 37 17 25
internal_value=-0.000202088 0.0101011 -0.000811565 -0.019378 -0.00436436 0.00139463 0.00580738 -0.00479849 -0.0132009
internal_weight=41.7014 11.9991 9.56661 6.5608 29.7023 23.9349 19.495 14.4663 10.6699
internal_count=257 87 77 56 170 134 107 79 62
is_linear=0
shrinkage=0.05


Tree=52
num_leaves=9
num_cat=0
split_feature=4 0 0 4 2 0 2 4
split_gain=0.720599 1.31107 1.18554 1.83871 1.2115 2.1831 1.05083 0.898637
threshold=-1.8740665023044467 0.91556862506111802 0.64292154957441594 5.2977274543948409 4.9153548993669505 0.32822742018085344 1.0084414784564475 1.7137120606515019
decision_type=2 2 2 2 2 2 2 2
left_child=-1 2 4 -4 5 -2 7 -7
right_child=1 -3 3 -5 -6 6 -8 -9
leaf_value=-0.017141935640000605 -0.042965868338692093 0.023786085935415705 -0.035733376029090561 0.011405401552032166 0.028113117923259757 0.028784628245131283 -0.016574769109968492 -0.0002747952996509302
leaf_weight=5.4532958324998608 2.6802940554916956 5.9595155864953986 5.3286077380180341 3.3814680874347687 4.3171346858143798 5.3016789406537992 3.7510008886456481 5.3401472195982933
leaf_count=38 31 25 37 17 22 32 23 32
internal_value=-0.000202207 0.00235957 -0.00188263 -0.0174329 0.00444943 -0.00153421 0.00618137 0.0142024
internal_weight=41.5131 36.0598 30.1003 8.71008 21.3903 17.0731 14.3928 10.6418
internal_count=257 219 194 54 140 118 87 64
is_linear=0
shrinkage=0.05


Tree=53
num_leaves=10
num_cat=0
split_feature=1 0 1 1 1 4 0 5 5
split_gain=0.663868 1.99639 2.60691 2.1286 1.47764 0.736723 1.19647 1.89194 0.561681
threshold=481.88671875000006 0.92972660904221593 193.73828125000003 -243.64062499999997 830.08984375000011 -0.093878271405494165 0.69993601995350496 72.38789120909054 68.034357763709224
decision_type=2 2 2 2 2 2 2 2 2
left_child=1 2 3 -1 -2 8 7 -7 -6
right_child=4 -3 -4 -5 5 6 -8 -9 -10
leaf_value=0.0031360577258283634 -0.027170126323844752 0.050334573710900533 0.037621258867486795 -0.056647501900025876 0.00031656155196131794 0.0034321564995230358 0.013389294674639972 -0.038960419427687472 0.028744566991155115
leaf_weight=4.0968418158590785 5.6664445493370321 2.4170014858245841 3.035275898873806 2.3389700874686232 3.3801712878048447 6.2632043212652224 6.0508124008774749 4.5394296795129776 3.5755066201090813
leaf_count=28 36 10 21 28 20 35 32 26 21
internal_value=-0.000199608 0.00977455 -0.000576278 -0.0185911 -0.00422239 0.00123905 -0.0044113 -0.0143818 0.0149297
internal_weight=41.3637 11.8881 9.47109 6.43581 29.4756 23.8091 16.8534 10.8026 6.95568
internal_count=257 87 77 56 170 134 93 61 41
is_linear=0
shrinkage=0.05


Tree=54
num_leaves=10
num_cat=0
split_feature=4 4 3 5 5 2 1 4 3
split_gain=0.72747 0.807849 1.19167 0.645344 1.24715 1.64579 1.45825 2.42433 1.34135
threshold=-1.8740665023044467 6.351334521934656 2.4593890502182769 74.105988459886291 67.729431627253618 2.9615239554503483 1109.1171875000002 1.0978370325747335 1.0594781521571022
decision_type=2 2 2 2 2 2 2 2 2
left_child=-1 2 3 4 6 8 7 -2 -6
right_child=1 -3 -4 -5 5 -7 -8 -9 -10
leaf_value=-0.017245214606708442 -0.051755818895168088 -0.020934541790347996 0.032725501008993872 -0.016905594103406595 0.0074485626609785242 -0.0062510151985843759 0.015896975984431985 0.0037792798132168155 0.050794118296520453
leaf_weight=5.4330717138946047 3.3514637947082573 3.3629987165331832 3.4199443385004988 4.0834534205496302 3.2516794688999635 4.9287141859531403 4.6659883111715308 4.7508444860577583 3.9564673751592636
leaf_count=38 28 18 17 31 23 25 27 31 19
internal_value=-0.000198106 0.00239105 0.00481152 0.00151836 0.00453915 0.0160154 -0.00636952 -0.0191924 0.0312404
internal_weight=41.2046 35.7716 32.4086 28.9886 24.9052 12.1369 12.7683 8.10231 7.20815
internal_count=257 219 201 184 153 67 86 59 42
is_linear=0
shrinkage=0.05


Tree=55
num_leaves=10
num_cat=0
split_feature=3 1 2 5 2 2 1 3 5
split_gain=0.853889 1.07909 2.20419 2.62647 2.27497 2.25357 1.9114 1.86689 1.06709
threshold=3.0586797917325836 1986.7265625000002 4.359875965198345 74.105988459886291 1.0084414784564475 1.0000000180025095e-35 -177.70703124999997 1.1521982586214914 64.35085313463135
decision_type=2 2 2 2 2 2 2 2 2
left_child=1 2 3 4 5 6 -1 8 -8
right_child=-2 -3 -4 -5 -6 -7 7 -9 -10
leaf_value=0.029938792852916812 0.02403635407220776 -0.021182306609256563 0.029329812317212101 -0.046658597216560467 -0.025484148888756577 0.03624235471645311 -0.011394239253444807 0.012245942326017957 -0.061040544534886013
leaf_weight=3.1810465119779181 3.3402849435806266 6.3244711831212035 5.7857672609388819 3.2746086642146102 5.8571608439087859 5.6948226727545253 2.0425469651818329 3.2853241637349129 2.3024070058017969
leaf_count=22 15 38 29 29 35 30 20 17 22
internal_value=-0.000194401 -0.00233855 0.00145403 -0.00483676 0.00128712 0.0107868 -0.00262178 -0.0161962 -0.037702
internal_weight=41.0884 37.7482 31.4237 25.6379 22.3633 16.5061 10.8113 7.63028 4.34495
internal_count=257 242 204 175 146 111 81 59 42
is_linear=0
shrinkage=0.05


Tree=56
num_leaves=11
num_cat=0
split_feature=3 1 1 4 0 1 5 4 5 4
split_gain=0.772181 0.981499 1.7823 2.24402 1.58895 1.08458 1.43875 2.94503 2.33022 1.04707
threshold=3.0586797917325836 1986.7265625000002 1581.5703125000002 -0.73822737438416064 0.72074336347961354 1202.9609375000002 67.729431627253618 1.2417571300309753 62.965712980126021 3.2412969723743288
decision_type=2 2 2 2 2 2 2 2 2 2
left_child=1 2 3 4 -1 6 8 -8 -5 -9
right_child=-2 -3 -4 5 -6 -7 7 9 -10 -11
leaf_value=-0.057218507261252584 0.022849587523181666 -0.020297161454318566 0.033858858385871063 0.024998111526503535 -0.0028489504673562278 -0.024041197053741355 0.053355392370184253 -0.021708754323734637 -0.029119532680877771 0.01786843109738662
leaf_weight=2.886764299124482 3.3381380140781394 6.2716401927173129 3.7204431444406501 3.3292845152318566 2.5142018608748913 2.9776805043220511 4.1679853126406652 3.06239228323102 4.9413697868585587 3.6786906644701958
leaf_count=34 15 38 19 23 15 18 23 21 32 19
internal_value=-0.0001958 -0.00224448 0.00137523 -0.00301014 -0.031909 0.00403408 0.0083928 0.0203167 -0.00733492 -0.000111005
internal_weight=40.8886 37.5505 31.2788 27.5584 5.40097 22.1574 19.1797 10.9091 8.27065 6.74108
internal_count=257 242 204 185 49 136 118 63 55 40
is_linear=0
shrinkage=0.05


Tree=57
num_leaves=10
num_cat=0
split_feature=3 3 3 2 0 3 0 5 0
split_gain=0.698367 0.732298 1.74391 1.84548 1.49476 1.31397 1.218 1.16961 0.925661
threshold=3.0586797917325836 1.2063817179916454 1.0594781521571022 1.0000000180025095e-35 0.47181662674165153 1.3565847729818497 0.39368716305044732 66.835859066086712 0.64292154957441594
decision_type=2 2 2 2 2 2 2 2 2
left_child=1 2 3 6 -5 -3 -1 -7 -9
right_child=-2 5 -4 4 -6 7 -8 8 -10
leaf_value=0.0065380317486768581 0.021725079049281105 -0.032630926319396979 0.035290677959428071 -0.0049099276452202641 0.042155787184189497 0.022585754358329269 -0.034836074031946759 0.0075977920873033598 -0.02201268004988572
leaf_weight=2.804120337590577 3.3354446142911902 4.4962399452924755 3.772179849445819 3.7921192012727261 3.0387813225388527 3.697006754577159 4.8648387230932713 4.4544517472386342 6.4774082228541374
leaf_count=33 15 27 21 27 17 18 36 27 36
internal_value=-0.00019708 -0.00215231 0.00500587 -0.0028728 0.0160276 -0.00899121 -0.0197078 -0.00172545 -0.00994717
internal_weight=40.7326 37.3971 18.272 14.4999 6.8309 19.1251 7.66896 14.6289 10.9319
internal_count=257 242 134 113 44 108 69 81 63
is_linear=0
shrinkage=0.05


Tree=58
num_leaves=10
num_cat=0
split_feature=4 0 0 4 2 4 2 3 4
split_gain=0.649344 1.04268 1.01885 1.49306 0.986392 1.23652 1.43371 1.37156 0.83913
threshold=-1.8740665023044467 0.92972660904221593 0.64292154957441594 5.2977274543948409 4.9153548993669505 3.383071946446536 1.0084414784564475 0.65999727727805213 1.0978370325747335
decision_type=2 2 2 2 2 2 2 2 2
left_child=-1 2 4 -4 5 6 7 -2 -9
right_child=1 -3 3 -5 -6 -7 -8 8 -10
leaf_value=-0.016560320030615291 -0.027189429835019797 0.022501919520494712 -0.031148067145093074 0.011086454708796418 0.025849429375391211 0.026157226355677195 -0.035997119307850697 0.030189011796915372 -0.0044021728779157811
leaf_weight=5.2734080459922543 2.8917724657803863 5.3862911164760581 5.6465640068054181 3.3246746733784676 4.3450686410069457 3.3677495867013922 3.3592855110764495 3.6823974028229713 3.3465581759810448
leaf_count=38 33 23 39 17 22 21 23 22 19
internal_value=-0.000193336 0.00224822 -0.00139255 -0.0154963 0.00463463 -0.00090243 -0.00776463 0.00179525 0.0137198
internal_weight=40.6238 35.3504 29.9641 8.97124 20.9928 16.6478 13.28 9.92073 7.02896
internal_count=257 219 196 56 140 118 97 74 41
is_linear=0
shrinkage=0.05


Tree=59
num_leaves=11
num_cat=0
split_feature=1 0 1 1 4 4 2 2 4 1
split_gain=0.69977 1.66649 2.39842 1.97193 1.39114 1.45729 1.50319 1.87031 1.38077 0.515989
threshold=481.88671875000006 0.92972660904221593 193.73828125000003 -243.64062499999997 -1.8740665023044467 -0.093878271405494165 2.7007607536951248 6.8910657264760902 1.1763511268053368 1040.3710937500002
decision_type=2 2 2 2 2 2 2 2 2 2
left_child=1 2 3 -1 -2 -6 8 -8 -7 -10
right_child=4 -3 -4 -5 5 6 7 -9 9 -11
leaf_value=0.0033263465627729029 -0.034802383193521351 0.047470277203896266 0.037285353180696611 -0.056102465157061923 0.024015908755760179 0.0041642978058953608 0.023705983308043313 -0.019578043794381144 -0.020232782180713962 -0.04860817075781583
leaf_weight=4.0196404308080664 3.3180796951055553 2.3828460276126853 2.9875183925032616 2.1384286042302838 4.9362924285233047 3.7502909377217311 6.4729885533452016 4.0618036314845085 3.2953169494867325 3.118081159889698
leaf_count=28 22 10 21 28 30 21 32 22 21 22
internal_value=-0.000190627 0.0102273 0.00052378 -0.0173107 -0.00433883 -0.000395728 -0.00621755 0.00701736 -0.0199357 -0.0340284
internal_weight=40.4813 11.5284 9.14559 6.15807 28.9529 25.6348 20.6985 10.5348 10.1637 6.4134
internal_count=257 87 77 56 170 148 118 54 64 43
is_linear=0
shrinkage=0.05


Tree=60
num_leaves=10
num_cat=0
split_feature=3 3 3 2 4 0 2 2 4
split_gain=0.644429 0.702418 1.56301 1.64644 1.579 1.36735 1.283 1.37555 1.18416
threshold=3.0586797917325836 1.2063817179916454 1.0594781521571022 1.0000000180025095e-35 -0.15999874732178157 0.47181662674165153 0.29988730335591929 3.5154557025106929 2.4171838358629572
decision_type=2 2 2 2 2 2 2 2 2
left_child=1 2 3 4 -1 -5 -3 -8 -6
right_child=-2 6 -4 5 8 -7 7 -9 -10
leaf_value=-0.058838443834293777 0.020947574257080701 0.010938559309398126 0.03352423294288439 -0.0049177895639490876 0.017009518511634861 0.040231751821210408 -0.033662720629322893 -0.0013665691335477707 -0.02874781441111306
leaf_weight=1.8498283717781303 3.3095423579215995 5.7296479903161552 3.7874265462160102 3.7545171529054642 2.8586136810481566 3.0304486453533173 6.5469868928194028 6.641570620238781 2.7977978326380253
leaf_count=26 15 34 21 27 23 17 39 35 20
internal_value=-0.00019068 -0.0020816 0.00496603 -0.00260241 -0.0187375 0.0152479 -0.00881645 -0.0173988 -0.00562316
internal_weight=40.3064 36.9968 18.0786 14.2912 7.50624 6.78497 18.9182 13.1886 5.65641
internal_count=257 242 134 113 69 44 108 74 43
is_linear=0
shrinkage=0.05


Tree=61
num_leaves=9
num_cat=0
split_feature=1 3 1 1 2 3 1 4
split_gain=0.64389 1.46243 1.2792 1.48275 1.20659 1.4965 0.781669 0.928544
threshold=481.88671875000006 0.76025412106091661 830.08984375000011 1262.3046875000002 0.70294185685608479 0.65999727727805213 3106.6210937500005 3.1002544806155625
decision_type=2 2 2 2 2 2 2 2
left_child=4 -2 -3 -4 5 -1 7 -5
right_child=1 2 3 6 -6 -7 -8 -9
leaf_value=-0.011016247626305504 -0.035328172384775126 -0.025393583720695126 0.025235130316165963 -0.024659186276297165 -0.017082948952264566 0.034235454951251958 0.016120207944522295 0.0040868894160242843
leaf_weight=2.6945680230855924 3.3310264367610243 4.1769936084747341 6.2938990443944958 5.6143509820103628 3.0466457381844512 5.6747904159128666 3.7376321405172339 5.6225201264023781
leaf_count=31 29 24 35 33 21 35 17 32
internal_value=-0.000188756 -0.0041748 -9.65509e-05 0.00487164 0.00985891 0.0196664 -0.00368729 -0.0102757
internal_weight=40.1924 28.7764 25.4454 21.2684 11.416 8.36936 14.9745 11.2369
internal_count=257 170 141 117 87 66 82 65
is_linear=0
shrinkage=0.05


Tree=62
num_leaves=11
num_cat=0
split_feature=4 4 0 3 4 5 5 2 2 0
split_gain=0.639794 0.827409 0.964155 1.72265 0.935671 0.934305 0.9715 0.760585 1.0897 0.789038
threshold=6.351334521934656 5.2977274543948409 1.1533850349678783 2.3997802136981936 -1.6660868724689923 72.113046357719341 74.105988459886291 1.0084414784564475 0.37132296984748608 0.54312763649060136
decision_type=2 2 2 2 2 2 2 2 2 2
left_child=1 2 3 4 -1 7 -7 8 9 -6
right_child=-2 -3 -4 -5 5 6 -8 -9 -10 -11
leaf_value=-0.027594628497662112 -0.021441636101761682 0.025633497611758167 0.02330806733762892 -0.042011860160571464 -0.019695869819108515 0.034998588097367278 -0.0023072578121104219 -0.017707079986121227 0.029582941984577834 0.011064215146818237
leaf_weight=2.7394977454096106 3.2526665180921546 3.2867725118994704 3.7312830090522757 2.6651157513260832 4.3600641023367732 3.9533807709813109 3.1242830641567707 5.8475264012813559 3.1346614472568026 3.9950543716549873
leaf_count=29 18 15 16 15 39 20 25 37 17 26
internal_value=-0.000184906 0.00169201 -0.000653393 -0.00365166 0.000113262 0.00322224 0.0185307 -0.00302718 0.0044439 -0.00498773
internal_weight=40.0903 36.8376 33.5509 29.8196 27.1545 24.415 7.07766 17.3373 11.4898 8.35512
internal_count=257 239 224 208 193 164 45 119 82 65
is_linear=0
shrinkage=0.05


Tree=63
num_leaves=10
num_cat=0
split_feature=3 3 3 2 3 0 0 5 3
split_gain=0.593277 0.67222 1.387 1.55099 1.2686 1.169 1.12716 1.12395 1.13573
threshold=3.0586797917325836 1.2063817179916454 1.0594781521571022 1.0000000180025095e-35 1.3565847729818497 0.47181662674165153 0.39368716305044732 72.940822547949125 1.8900599332398198
decision_type=2 2 2 2 2 2 2 2 2
left_child=1 2 3 6 -3 -5 -1 8 -6
right_child=-2 4 -4 5 7 -7 -8 -9 -10
leaf_value=0.0073646106096123144 0.020165689019627772 -0.032129512273712621 0.031799197968449815 -0.0038381445335970198 0.030046653769372867 0.038027215261004915 -0.033122006531151285 -0.020051043193597989 -0.0056666275073147046
leaf_weight=2.7300926223397273 3.2878322005271903 4.3938797265291241 3.7859295532107344 3.6929729394614697 3.7912310436367971 3.0400218144059181 4.6423320062458515 5.1799854561686507 5.3926276937127113
leaf_count=33 15 27 21 27 22 17 36 33 26
internal_value=-0.000180747 -0.00200605 0.00492761 -0.00228479 -0.00861946 0.0150645 -0.0181294 -0.00142777 0.00907634
internal_weight=39.9369 36.6491 17.8913 14.1054 18.7577 6.73299 7.37242 14.3638 9.18386
internal_count=257 242 134 113 108 44 69 81 48
is_linear=0
shrinkage=0.05


Tree=64
num_leaves=11
num_cat=0
split_feature=1 1 3 3 0 1 0 0 0 3
split_gain=0.567087 1.25856 1.80182 2.73176 1.76551 1.15152 1.58586 1.04305 0.809724 0.531073
threshold=481.88671875000006 688.66601562500011 0.95900085094124277 1.1887302650451153 0.69175768568967377 193.73828125000003 0.66291427086590582 0.39368716305044732 0.87865699193570446 1.6106108514452173
decision_type=2 2 2 2 2 2 2 2 2 2
left_child=5 -2 -3 -4 9 6 7 -1 -6 -5
right_child=1 2 3 4 8 -7 -8 -9 -10 -11
leaf_value=0.0074071781073084811 -0.034222626152288847 -0.030923398469496294 0.044592558942633233 -0.033207247238159293 0.027565105107332323 0.03225417883947497 0.026207319328699005 -0.040663460798107204 -0.0013770189684938941 -0.0072800494107358423
leaf_weight=1.9618373550474624 3.0628724992275265 4.03883661143482 3.6947970390319851 3.9550085254013565 4.3588757142424566 3.6824175268411636 3.0516216792166233 2.6564825847744942 5.4236866235733032 3.9452958479523659
leaf_count=24 21 31 19 26 25 24 16 23 24 24
internal_value=-0.000177449 -0.00394412 -0.000295345 0.00549115 -0.00267901 0.00927191 -0.00176211 -0.0202433 0.0115189 -0.0202596
internal_weight=39.8317 28.4794 25.4165 21.3777 17.6829 11.3524 7.66994 4.61832 9.78256 7.9003
internal_count=257 170 149 118 99 87 63 47 49 50
is_linear=0
shrinkage=0.05


Tree=65
num_leaves=10
num_cat=0
split_feature=4 1 1 3 4 4 4 2 1
split_gain=0.59825 0.947953 1.47376 2.07437 1.78709 1.17621 1.09284 0.948644 0.6666
threshold=6.351334521934656 3106.6210937500005 2022.1445312500002 2.2616622136784943 -0.73822737438416064 0.40529504592279153 3.2412969723743288 1.0000000180025095e-35 481.88671875000006
decision_type=2 2 2 2 2 2 2 2 2
left_child=1 2 3 4 7 -6 8 -1 -7
right_child=-2 -3 -4 -5 5 6 -8 -9 -10
leaf_value=-0.056328318816104256 -0.020872679820381948 0.027236238251783035 -0.030571112857470752 0.040287617743531616 0.025545830765030315 0.0037613032576848944 0.014665879201378712 -0.011317859979260386 -0.02244845861719369
leaf_weight=1.9333443604409719 3.2094821110367766 3.2917919158935538 3.7151229344308367 3.2867850959300986 5.0293645150959554 3.996868848800661 6.0678373873233786 2.9672797881066799 6.1722085550427437
leaf_count=27 18 15 26 15 31 30 35 22 38
internal_value=-0.000177265 0.00164447 -0.000895349 0.00284779 -0.00185498 0.00441762 -0.00212682 -0.0290749 -0.0121469
internal_weight=39.6701 36.4606 33.1688 29.4537 26.1669 21.2663 16.2369 4.90062 10.1691
internal_count=257 239 224 198 183 134 103 49 68
is_linear=0
shrinkage=0.05


Tree=66
num_leaves=11
num_cat=0
split_feature=4 1 1 2 5 5 5 2 5 1
split_gain=0.584902 1.44065 1.27066 1.57744 1.43753 1.52041 1.5046 0.467953 0.38755 0.346808
threshold=-2.4871711284752265 3106.6210937500005 2138.1484375000005 4.359875965198345 63.363963577478053 66.514867699477477 74.105988459886291 1.0084414784564475 61.040778151440954 428.29296875000006
decision_type=2 2 2 2 2 2 2 2 2 2
left_child=-1 2 3 4 8 -6 7 9 -2 -7
right_child=1 -3 -4 -5 5 6 -8 -9 -10 -11
leaf_value=-0.019568017933951201 0.0043054268656284199 0.034484510037930974 -0.028833531647589936 0.023412001891354322 -0.04276767726770881 0.024958898465228425 -0.035473352301256464 -0.0083677547931198665 0.029620377035668378 0.0011293520071150192
leaf_weight=3.5396760310977688 3.103306705132133 3.0710278972983351 3.7226117774844161 6.732644945383071 3.2045976221561459 3.1873222924768907 3.0011399127542964 4.0495292507112026 2.9481428898870945 2.9308441318571568
leaf_count=23 26 14 27 33 22 25 27 24 18 18
internal_value=-0.000175329 0.00173403 -0.00132488 0.00218721 -0.00418513 -0.0118813 -0.00436515 0.00481688 0.0166384 0.0135436
internal_weight=39.4908 35.9512 32.8801 29.1575 22.4249 16.3734 13.1688 10.1677 6.05145 6.11817
internal_count=257 234 220 193 160 116 94 67 44 43
is_linear=0
shrinkage=0.05


Tree=67
num_leaves=10
num_cat=0
split_feature=4 1 1 3 4 5 5 5 4
split_gain=0.546758 0.776407 1.27036 1.90093 1.62571 1.1208 2.97676 2.67643 0.761305
threshold=6.351334521934656 3106.6210937500005 2022.1445312500002 2.2616622136784943 -0.73822737438416064 73.24303884277154 67.729431627253618 62.965712980126021 -2.1916903961709369
decision_type=2 2 2 2 2 2 2 2 2
left_child=1 2 3 4 8 6 7 -6 -1
right_child=-2 -3 -4 -5 5 -7 -8 -9 -10
leaf_value=-0.0056527180639455946 -0.020039197171481352 0.024765787879285631 -0.028723233891076103 0.038558503945128463 0.018743477918364261 -0.017624517971196713 0.034262203321070793 -0.034757922983868601 -0.045827606976934249
leaf_weight=2.1065984703600407 3.1833496093749991 3.2817178592085829 3.6102954037487498 3.2836141884326926 4.6004913691431373 4.632466558367013 7.2398851066827765 4.7522646635770798 2.6785946972668198
leaf_count=20 18 15 26 15 31 32 39 32 29
internal_value=-0.00017291 0.00157477 -0.000738201 0.00271078 -0.00181474 0.00412058 0.0101916 -0.00844132 -0.0281413
internal_weight=39.3693 36.1859 32.9042 29.2939 26.0103 21.2251 16.5926 9.35276 4.78519
internal_count=257 239 224 198 183 134 102 63 49
is_linear=0
shrinkage=0.05


Tree=68
num_leaves=10
num_cat=0
split_feature=4 1 4 1 5 5 5 5 1
split_gain=0.580902 1.22242 1.15157 1.46928 1.0496 2.71595 1.87819 0.302104 0.00789165
threshold=-2.4871711284752265 3106.6210937500005 -0.73822737438416064 1891.1953125000002 67.729431627253618 62.965712980126021 73.24303884277154 78.139270187974148 688.66601562500011
decision_type=2 2 2 2 2 2 2 2 2
left_child=-1 2 -2 4 5 -4 8 -8 -6
right_child=1 -3 3 -5 6 -7 7 -9 -10
leaf_value=-0.019539952664961242 -0.027428078622760161 0.031955203977121774 0.022462766888897253 -0.021162489845047927 0.032243582780473054 -0.030222876383211385 -0.014423572016515274 0.0073983251865308358 0.035523851892052864
leaf_weight=3.5233803782612076 3.6826710449531666 3.0604287013411513 4.7252234369516426 5.4370785951614371 3.7245488204061967 5.0714893974363804 3.1081854067742825 3.2386133968830109 3.6113329380750656
leaf_count=23 39 14 31 35 21 35 20 20 19
internal_value=-0.000172109 0.00174155 -0.00109493 0.00225874 0.00768235 -0.00481114 0.0166276 -0.0032884 0.0338584
internal_weight=39.183 35.6596 32.5991 28.9165 23.4794 9.79671 13.6827 6.3468 7.33588
internal_count=257 234 220 181 146 66 80 40 40
is_linear=0
shrinkage=0.05


Tree=69
num_leaves=10
num_cat=0
split_feature=1 0 3 2 3 0 0 2 5
split_gain=0.519881 1.33144 1.76383 1.15839 1.16636 0.621473 1.64419 1.08571 0.751349
threshold=481.88671875000006 1.0037978394678155 0.76025412106091661 0.70294185685608479 0.65999727727805213 0.51323933226469587 0.69175768568967377 0.7730199512383048 67.926865746260617
decision_type=2 2 2 2 2 2 2 2 2
left_child=3 2 -2 4 -1 -4 7 -7 -8
right_child=1 -3 5 -5 -6 6 8 -9 -10
leaf_value=-0.0090212532368731807 -0.033924208048220834 -0.029432895601880407 0.019720882574586349 -0.017635407735501159 0.031536939821893262 0.0046190453024752597 -0.00072012799626905032 -0.033189720137682496 0.032854247571654525
leaf_weight=2.5955203305929881 3.1602215282619062 4.2934024631977072 6.0115304589271572 3.0012550354003897 5.5910062715411186 3.5921990126371366 2.9180630370974541 4.0277383774518967 3.8846764862537384
leaf_count=31 29 19 35 21 35 22 18 25 22
internal_value=-0.000168975 -0.00382184 0.000838522 0.00893654 0.0186781 0.0062147 0.000585173 -0.0153659 0.0184524
internal_weight=39.0756 27.8878 23.5944 11.1878 8.18653 20.4342 14.4227 7.61994 6.80274
internal_count=257 170 151 87 66 122 87 47 40
is_linear=0
shrinkage=0.05


Tree=70
num_leaves=10
num_cat=0
split_feature=4 1 4 1 2 5 2 5 4
split_gain=0.514109 1.13308 1.04406 1.3339 2.80123 1.41033 1.90968 0.932482 1.46771
threshold=-2.4871711284752265 3106.6210937500005 -0.73822737438416064 1891.1953125000002 4.359875965198345 73.24303884277154 1.0084414784564475 69.016020021500552 0.78747460859691665
decision_type=2 2 2 2 2 2 2 2 2
left_child=-1 2 -2 4 5 6 7 8 -4
right_child=1 -3 3 -5 -6 -7 -8 -9 -10
leaf_value=-0.018439826457124942 -0.026410253938953937 0.030656470175646395 -0.017167231809638962 -0.020383028815925953 0.042830883082209371 -0.029235678449739424 -0.022472885742264498 0.042294429420712265 0.025646038869176775
leaf_weight=3.5032355263829222 3.6228322694078079 3.0726850330829611 3.3617721572518438 5.3809849396347991 4.4697259962558737 3.6212424561381331 4.3772033452987662 2.6694284602999678 4.9483999498188496
leaf_count=23 39 14 24 35 21 28 26 13 34
internal_value=-0.000165553 0.00163657 -0.00111119 0.00206808 0.00722034 -0.00116668 0.00545218 0.016585 0.00832649
internal_weight=39.0275 35.5243 32.4516 28.8288 23.4478 18.978 15.3568 10.9796 8.31017
internal_count=257 234 220 181 146 125 97 71 58
is_linear=0
shrinkage=0.05


Tree=71
num_leaves=9
num_cat=0
split_feature=3 1 1 4 4 5 5 5
split_gain=0.491197 0.766181 1.58462 1.50302 1.51617 0.899433 2.13965 1.99447
threshold=3.0586797917325836 1986.7265625000002 1581.5703125000002 -0.73822737438416064 -2.2229318694637552 73.24303884277154 67.729431627253618 62.965712980126021
decision_type=2 2 2 2 2 2 2 2
left_child=1 2 3 4 -1 6 7 -5
right_child=-2 -3 -4 5 -6 -7 -8 -9
leaf_value=-0.00024509012321097105 0.018519341161247021 -0.018449640901280023 0.032233632146260502 0.017056447310622676 -0.056652769637918501 -0.016014189129999867 0.029339483394965799 -0.028846304824014686
leaf_weight=2.39367032982409 3.2261966168880454 5.8194444440305224 3.652775026857852 4.4930650498718112 2.3715320453047779 4.9260047636926165 6.9852927066385737 4.9996057599782944
leaf_count=19 15 38 19 30 30 33 38 35
internal_value=-0.000163207 -0.00185432 0.00138409 -0.00292199 -0.0283179 0.00273195 0.00833601 -0.00711964
internal_weight=38.8676 35.6414 29.8219 26.1692 4.7652 21.404 16.478 9.49267
internal_count=257 242 204 185 49 136 103 65
is_linear=0
shrinkage=0.05


Tree=72
num_leaves=11
num_cat=0
split_feature=4 4 0 3 0 5 4 3 4 2
split_gain=0.506904 0.581569 1.60035 0.964759 1.54213 0.845623 2.14044 0.622458 0.453522 0.334548
threshold=6.351334521934656 -2.4871711284752265 0.92972660904221593 1.9865953189801817 0.59454498110180876 73.24303884277154 0.83193916609082941 0.82252429809946115 -0.15999874732178157 0.61909754233972258
decision_type=2 2 2 2 2 2 2 2 2 2
left_child=1 -1 3 4 5 6 8 -8 -3 -6
right_child=-2 2 -4 -5 9 -7 7 -9 -10 -11
leaf_value=-0.017860438605844856 -0.019421651363111941 -0.029837265108305769 0.032081297280299625 0.020139308736570577 -0.014360914114603739 -0.015184501940943894 0.014268396297088676 0.044803261646950331 -0.0007740496278182637 -0.037192627518734915
leaf_weight=3.4856855981051913 3.1396505013108245 2.3384791444987094 4.2864362001419059 4.614270217716693 3.2195073738694182 4.5993281789124003 3.4643200486898422 3.2205890864133835 3.1510070674121433 3.1982971578836441
leaf_count=23 18 28 19 26 24 34 26 15 20 24
internal_value=-0.000162891 0.00153664 0.00364345 -0.000740425 -0.00489473 0.00308052 0.00998081 0.0289792 -0.0131548 -0.025739
internal_weight=38.7176 35.5779 32.0922 27.8058 23.1915 16.7737 12.1744 6.68491 5.48949 6.4178
internal_count=257 239 216 197 171 123 89 41 48 48
is_linear=0
shrinkage=0.05


Tree=73
num_leaves=10
num_cat=0
split_feature=1 0 3 0 1 1 3 0 4
split_gain=0.4868 1.2496 1.18376 1.10614 2.28292 1.78724 0.857654 2.51719 1.57151
threshold=481.88671875000006 1.0037978394678155 0.95900085094124277 0.91556862506111802 193.73828125000003 -243.64062499999997 1.1887302650451153 0.69175768568967377 3.1002544806155625
decision_type=2 2 2 2 2 2 2 2 2
left_child=3 2 -2 4 5 -1 -4 8 -8
right_child=1 -3 6 -5 -6 -7 7 -9 -10
leaf_value=0.0023826984834248452 -0.022391724641999605 -0.028641409767568689 0.025868862714033953 0.038663060805889514 0.037422756646812237 -0.055976609867951291 -0.035673821455073661 0.024722902977865422 0.0084218259583645101
leaf_weight=3.8650209289044133 4.4380680769681993 4.2530063539743415 4.3203062415123012 2.4090341776609412 2.8073653392493725 1.9860245026648033 4.8844795525073987 6.1592414975166312 3.4460207372903824
leaf_count=28 37 19 24 11 20 28 35 35 20
internal_value=-0.000159207 -0.00372271 0.000835916 0.00869562 0.000357757 -0.0174262 0.00631628 0.000486418 -0.0174331
internal_weight=38.5686 27.5011 23.2481 11.0674 8.65841 5.85105 18.81 14.4897 8.3305
internal_count=257 170 151 87 76 56 114 90 55
is_linear=0
shrinkage=0.05


Tree=74
num_leaves=10
num_cat=0
split_feature=4 0 4 4 4 0 4 4 0
split_gain=0.469077 0.531938 0.887601 0.896188 0.964465 0.866884 1.97093 0.573178 0.491936
threshold=6.351334521934656 1.1533850349678783 -1.6660868724689923 -0.093878271405494165 0.78747460859691665 0.46055692923325081 5.1713108764392564 -0.47456985650770606 0.64292154957441594
decision_type=2 2 2 2 2 2 2 2 2
left_child=1 2 -1 7 -5 -6 8 -4 -7
right_child=-2 -3 3 4 5 6 -8 -9 -10
leaf_value=-0.024982988144425088 -0.018773870521089437 0.019624229452595392 0.0044404842601210416 -0.022007008278952064 0.019648512023992926 -0.0065967667572562538 0.029562835147650735 0.038017110290594229 -0.030000402327023896
leaf_weight=3.3379153795540359 3.1104129403829566 3.6249074935913077 2.5323724150657654 4.7394012361764934 5.6252948269248035 6.038402818143366 3.2848184481263152 2.5518166571855572 3.574482899159193
leaf_count=33 18 16 26 32 38 38 16 14 26
internal_value=-0.000159413 0.00148034 -0.000595437 0.00227629 -0.00187997 0.00326985 -0.00387366 0.021293 -0.0152992
internal_weight=38.4198 35.3094 31.6845 28.3466 23.2624 18.523 12.8977 5.08419 9.61289
internal_count=257 239 223 190 150 118 80 40 64
is_linear=0
shrinkage=0.05


Tree=75
num_leaves=11
num_cat=0
split_feature=4 1 1 2 0 2 5 1 5 0
split_gain=0.425834 0.581353 0.99867 1.48538 1.77189 0.871336 1.90136 1.68145 1.31449 0.138562
threshold=6.351334521934656 3106.6210937500005 2022.1445312500002 4.359875965198345 0.32822742018085344 0.70294185685608479 69.122809507102076 520.75390625000011 65.622176440657583 0.57442032435231749
decision_type=2 2 2 2 2 2 2 2 2 2
left_child=1 2 3 4 -1 7 -7 9 -9 -6
right_child=-2 -3 -4 -5 5 6 -8 8 -10 -11
leaf_value=-0.042394339367275991 -0.017947003470521538 0.021594606539507552 -0.026100608403426262 0.024981040849103651 0.034732503449424856 -0.037004048739844211 0.018253170298602985 0.014571651187830242 -0.027488466469983819 0.019879759646351976
leaf_weight=2.5753742605447867 3.091525223106145 3.23831583559513 3.4366870820522299 5.8136240057647219 3.3368992581963557 3.6789886131882659 2.6987782455980778 3.5638662241399288 3.8800266310572624 2.9659413769841194
leaf_count=38 18 15 26 30 21 25 16 21 26 21
internal_value=-0.000155269 0.00140784 -0.000638189 0.00243076 -0.00334456 0.00165273 -0.0136217 0.00873928 -0.00735161 0.0277432
internal_weight=38.28 35.1885 31.9502 28.5135 22.6999 20.1245 6.37777 13.7467 7.44389 6.30284
internal_count=257 239 224 198 168 130 41 89 47 42
is_linear=0
shrinkage=0.05


Tree=76
num_leaves=11
num_cat=0
split_feature=3 1 1 2 2 2 1 5 1 5
split_gain=0.415991 0.719689 1.45843 1.01347 1.51929 1.64813 1.34825 1.22739 0.729353 0.486816
threshold=3.0586797917325836 1986.7265625000002 1581.5703125000002 3.7825641537518941 0.70294185685608479 1.0000000180025095e-35 316.64843750000006 69.659605649135457 871.21093750000011 67.729431627253618
decision_type=2 2 2 2 2 2 2 2 2 2
left_child=1 2 3 4 5 6 9 -6 -8 -1
right_child=-2 -3 -4 -5 7 -7 8 -9 -10 -11
leaf_value=-0.0085432785758799059 0.017138524221870243 -0.018004951599145114 0.031060357575355375 0.020085571629957201 -0.044798586570167567 0.031549613392308981 -0.04836303262695163 -0.0026682567409108231 -0.0095132045874790992 0.020170107204481928
leaf_weight=2.530066375620672 3.1868215948343268 5.6884897761046878 3.6371040642261496 4.0771635398268691 3.9190407544374457 3.584644202142953 2.2063886858522892 3.0932038612663746 2.6700616683810949 3.5438103284686804
leaf_count=25 15 38 19 23 29 20 19 20 22 27
internal_value=-0.000155047 -0.00173192 0.00143159 -0.00277389 -0.00709935 0.00212244 -0.00751069 -0.0262143 -0.0270911 0.00820958
internal_weight=38.1368 34.95 29.2615 25.6244 21.5472 14.535 10.9503 7.01224 4.87645 6.07388
internal_count=257 242 204 185 162 113 93 49 41 52
is_linear=0
shrinkage=0.05


Tree=77
num_leaves=10
num_cat=0
split_feature=4 0 1 1 0 5 4 0 2
split_gain=0.409612 1.01273 1.25358 1.26592 0.738008 0.699617 1.75048 1.30125 1.3564
threshold=-2.4871711284752265 0.92972660904221593 193.73828125000003 481.88671875000006 0.55402139887422008 67.926865746260617 2.1447575231909624 0.59997416113706348 4.9153548993669505
decision_type=2 2 2 2 2 2 2 2 2
left_child=-1 2 4 -4 -2 6 -5 8 -7
right_child=1 -3 3 5 -6 7 -8 -9 -10
leaf_value=-0.016725603821460537 -0.009250088173559495 0.02154478977317395 0.034367255667027752 0.0046758975537304496 -0.047014526411999602 -0.024666853758167365 -0.047807764159636744 0.023069663403574154 0.016261282900907947
leaf_weight=3.3955957908183327 3.3660955941304591 5.318117454648017 2.7997312471270588 4.3368072574958232 2.1013085432350636 4.8933011628687364 2.5072054713964462 5.8179945014417163 3.4527319222688675
leaf_count=23 35 24 20 32 17 34 20 34 18
internal_value=-0.000153941 0.00147269 -0.00217359 0.00278465 -0.0237642 -0.00142435 -0.0145507 0.00491828 -0.00773499
internal_weight=37.9889 34.5933 29.2752 23.8078 5.4674 21.008 6.84401 14.164 8.34603
internal_count=257 234 210 158 52 138 52 86 52
is_linear=0
shrinkage=0.05


Tree=78
num_leaves=10
num_cat=0
split_feature=4 4 4 4 0 0 4 0 4
split_gain=0.410931 0.464944 0.622619 0.76383 0.635772 4.05901 1.27838 1.18671 2.23281
threshold=6.351334521934656 5.2977274543948409 3.5182771315100183 3.0341515659825151 0.50426448370265298 0.4421116407816863 0.10148287755632955 0.86697046062891225 0.14566948004853422
decision_type=2 2 2 2 2 2 2 2 2
left_child=1 2 3 4 5 6 -1 8 -6
right_child=-2 -3 -4 -5 7 -7 -8 -9 -10
leaf_value=-0.041380822143871981 -0.017758306389813839 0.01973411845632822 -0.019510904834192044 0.026792472150476639 0.0056884335378843036 0.061208268576166396 0.0037617216736002381 0.010460320753354119 -0.043643721580335006
leaf_weight=2.2772066630423158 3.0476263538002959 3.141925334930419 3.7672812640666953 2.8249951712787142 4.706190397962926 2.7241729907691479 5.037771500647068 5.849850393831729 4.4743720032274723
leaf_count=30 18 15 27 18 38 16 37 27 31
internal_value=-0.000152919 0.00138871 -0.00043177 0.00214495 -0.000632487 0.00911032 -0.0102915 -0.00713993 -0.0183548
internal_weight=37.8514 34.8038 31.6618 27.8946 25.0696 10.0392 7.31498 15.0304 9.18056
internal_count=257 239 224 197 179 83 67 96 69
is_linear=0
shrinkage=0.05


Tree=79
num_leaves=10
num_cat=0
split_feature=4 0 1 5 1 2 4 1 0
split_gain=0.391927 0.904329 1.13814 1.21608 0.928859 2.12449 2.05927 0.925455 0.70516
threshold=-2.4871711284752265 0.92972660904221593 193.73828125000003 61.39177191466969 716.04101562500011 1.0891480727979641 2.1176806630298981 1960.3925781250002 0.55402139887422008
decision_type=2 2 2 2 2 2 2 2 2
left_child=-1 2 8 -4 -5 -6 -7 -8 -2
right_child=1 -3 3 4 5 6 7 -9 -10
leaf_value=-0.016377027155776221 -0.0086044660151641146 0.020453977372667013 -0.025453193452854728 0.025964473068434853 0.026831547579260037 -0.044180775948290063 0.021764585512200996 -0.015432207359733274 -0.04590063807579528
leaf_weight=3.3882856946438542 3.3352372841909554 5.2935255318880072 3.3001166256144669 5.0081363283097771 5.2868321761488906 3.3713692724704725 3.4500067085027695 3.2450088337063789 2.0440907888114452
leaf_count=23 35 24 28 34 33 23 18 22 17
internal_value=-0.000153483 0.00144754 -0.00201693 0.00270269 0.00726612 0.00116682 -0.0123122 0.00373566 -0.0227766
internal_weight=37.7226 34.3343 29.0408 23.6615 20.3614 15.3532 10.0664 6.69502 5.37933
internal_count=257 234 210 158 130 96 63 40 52
is_linear=0
shrinkage=0.05


Tree=80
num_leaves=11
num_cat=0
split_feature=1 0 1 2 0 1 5 2 0 4
split_gain=0.406875 1.27132 1.00667 3.23292 1.0061 1.68813 1.09667 0.966712 1.09807 0.366411
threshold=481.88671875000006 1.0037978394678155 1581.5703125000002 4.4880172714833133 0.91556862506111802 193.73828125000003 70.043904724538351 4.359875965198345 0.47181662674165153 1.1763511268053368
decision_type=2 2 2 2 2 2 2 2 2 2
left_child=4 2 7 -4 5 6 -1 8 -2 -10
right_child=1 -3 3 -5 -6 -7 -8 -9 9 -11
leaf_value=0.0014826314581505436 -0.039458588933475328 -0.028842983230163891 0.042593911158939256 -0.016001982363563854 0.036793110835287322 0.031598182758368794 -0.043938773978145988 0.015997444406348964 0.0066918930865562916 -0.016735069150516823
